{"learner":{"attributes":{"scikit_learn":"{\"_estimator_type\": \"regressor\"}"},"feature_names":["temperature","solar_generation","is_holiday","year","month","is_weekend"],"feature_types":["float","float","int","int","int","int"],"gradient_booster":{"model":{"gbtree_model_param":{"num_parallel_tree":"1","num_trees":"100"},"iteration_indptr":[0,1,2,3,4,5,6,7,8,9,10,11,12,13,14,15,16,17,18,19,20,21,22,23,24,25,26,27,28,29,30,31,32,33,34,35,36,37,38,39,40,41,42,43,44,45,46,47,48,49,50,51,52,53,54,55,56,57,58,59,60,61,62,63,64,65,66,67,68,69,70,71,72,73,74,75,76,77,78,79,80,81,82,83,84,85,86,87,88,89,90,91,92,93,94,95,96,97,98,99,100],"tree_info":[0,0,0,0,0,0,0,0,0,0,0,0,0,0,0,0,0,0,0,0,0,0,0,0,0,0,0,0,0,0,0,0,0,0,0,0,0,0,0,0,0,0,0,0,0,0,0,0,0,0,0,0,0,0,0,0,0,0,0,0,0,0,0,0,0,0,0,0,0,0,0,0,0,0,0,0,0,0,0,0,0,0,0,0,0,0,0,0,0,0,0,0,0,0,0,0,0,0,0,0],"trees":[{"base_weights":[1.6577289E-5,5.797087E1,-5.8020615E1,6.249382E1,9.913531E0,-3.4298233E1,-9.364759E1,3.7001636E0,7.0848694E0,-2.6687536E-1,3.158817E0,-1.8676083E0,-4.865981E0,-1.1971102E1,-8.471173E0],"categories":[],"categories_nodes":[],"categories_segments":[],"categories_sizes":[],"default_left":[0,0,0,0,0,0,0,0,0,0,0,0,0,0,0],"id":0,"left_children":[1,3,5,7,9,11,13,-1,-1,-1,-1,-1,-1,-1,-1],"loss_changes":[2.3514268E7,7.59491E5,2.949765E6,6.78076E5,8.244468E4,4.7002E5,3.14986E5,0E0,0E0,0E0,0E0,0E0,0E0,0E0,0E0],"parents":[2147483647,0,0,1,1,2,2,3,3,4,4,5,5,6,6],"right_children":[2,4,6,8,10,12,14,-1,-1,-1,-1,-1,-1,-1,-1],"split_conditions":[7.104842E1,5.0266975E1,2.0876804E2,2.1663662E1,3.0524422E1,1.396569E2,2.08281E1,3.7001636E0,7.0848694E0,-2.6687536E-1,3.158817E0,-1.8676083E0,-4.865981E0,-1.1971102E1,-8.471173E0],"split_indices":[1,1,1,0,0,1,0,0,0,0,0,0,0,0,0],"split_type":[0,0,0,0,0,0,0,0,0,0,0,0,0,0,0],"sum_hessian":[6.989E3,3.496E3,3.493E3,3.195E3,3.01E2,2.098E3,1.395E3,7.9E2,2.405E3,1.91E2,1.1E2,1.006E3,1.092E3,3.53E2,1.042E3],"tree_param":{"num_deleted":"0","num_feature":"6","num_nodes":"15","size_leaf_vector":"1"}},{"base_weights":[-1.9018258E-3,5.2177723E1,-5.2226326E1,5.6247845E1,8.931737E0,-3.087162E1,-8.429746E1,3.3149736E0,6.3716598E0,-2.4032974E-1,2.8457816E0,-1.3795861E0,-4.176481E0,-9.467848E0,-6.441589E0],"categories":[],"categories_nodes":[],"categories_segments":[],"categories_sizes":[],"default_left":[0,0,0,0,0,0,0,0,0,0,0,0,0,0,0],"id":1,"left_children":[1,3,5,7,9,11,13,-1,-1,-1,-1,-1,-1,-1,-1],"loss_changes":[1.9050832E7,6.15027E5,2.390332E6,5.49243E5,6.690968E4,3.8985762E5,2.82023E5,0E0,0E0,0E0,0E0,0E0,0E0,0E0,0E0],"parents":[2147483647,0,0,1,1,2,2,3,3,4,4,5,5,6,6],"right_children":[2,4,6,8,10,12,14,-1,-1,-1,-1,-1,-1,-1,-1],"split_conditions":[7.104842E1,5.0266975E1,2.0876804E2,2.151637E1,3.0524422E1,1.2619572E2,3.0277054E1,3.3149736E0,6.3716598E0,-2.4032974E-1,2.8457816E0,-1.3795861E0,-4.176481E0,-9.467848E0,-6.441589E0],"split_indices":[1,1,1,0,0,1,0,0,0,0,0,0,0,0,0],"split_type":[0,0,0,0,0,0,0,0,0,0,0,0,0,0,0],"sum_hessian":[6.989E3,3.496E3,3.493E3,3.195E3,3.01E2,2.098E3,1.395E3,7.82E2,2.413E3,1.91E2,1.1E2,8.18E2,1.28E3,9.14E2,4.81E2],"tree_param":{"num_deleted":"0","num_feature":"6","num_nodes":"15","size_leaf_vector":"1"}},{"base_weights":[-3.0282256E-3,4.696347E1,-4.7009853E1,5.0626095E1,8.047214E0,-2.7787127E1,-7.587912E1,2.9964454E0,5.7397804E0,-2.164193E-1,2.563769E0,-5.12096E0,-1.9942139E0,-9.30718E0,-6.5661044E0],"categories":[],"categories_nodes":[],"categories_segments":[],"categories_sizes":[],"default_left":[0,0,0,0,0,0,0,0,0,0,0,0,0,0,0],"id":2,"left_children":[1,3,5,7,9,11,13,-1,-1,-1,-1,-1,-1,-1,-1],"loss_changes":[1.5434354E7,4.9804E5,1.936873E6,4.454475E5,5.4301777E4,3.84668E5,2.391335E5,0E0,0E0,0E0,0E0,0E0,0E0,0E0,0E0],"parents":[2147483647,0,0,1,1,2,2,3,3,4,4,5,5,6,6],"right_children":[2,4,6,8,10,12,14,-1,-1,-1,-1,-1,-1,-1,-1],"split_conditions":[7.104842E1,5.0266975E1,2.0876804E2,2.1663662E1,3.0524422E1,2.1180576E1,2.4699661E1,2.9964454E0,5.7397804E0,-2.164193E-1,2.563769E0,-5.12096E0,-1.9942139E0,-9.30718E0,-6.5661044E0],"split_indices":[1,1,1,0,0,0,0,0,0,0,0,0,0,0,0],"split_type":[0,0,0,0,0,0,0,0,0,0,0,0,0,0,0],"sum_hessian":[6.989E3,3.496E3,3.493E3,3.195E3,3.01E2,2.098E3,1.395E3,7.9E2,2.405E3,1.91E2,1.1E2,5.25E2,1.573E3,5.17E2,8.78E2],"tree_param":{"num_deleted":"0","num_feature":"6","num_nodes":"15","size_leaf_vector":"1"}},{"base_weights":[-4.4408096E-3,4.227027E1,-4.2315453E1,4.540195E1,5.2673483E0,-1.842709E1,-6.2048367E1,3.3503444E0,5.4963293E0,-3.3423287E-1,2.9019232E0,-3.5368843E0,-9.10933E-1,-5.2294397E0,-7.84279E0],"categories":[],"categories_nodes":[],"categories_segments":[],"categories_sizes":[],"default_left":[0,0,0,0,0,0,0,0,0,0,0,0,0,0,0],"id":3,"left_children":[1,3,5,7,9,11,13,-1,-1,-1,-1,-1,-1,-1,-1],"loss_changes":[1.2504703E7,4.049975E5,1.6458825E6,3.64939E5,5.6128906E4,2.49411E5,3.0153E5,0E0,0E0,0E0,0E0,0E0,0E0,0E0,0E0],"parents":[2147483647,0,0,1,1,2,2,3,3,4,4,5,5,6,6],"right_children":[2,4,6,8,10,12,14,-1,-1,-1,-1,-1,-1,-1,-1],"split_conditions":[7.104842E1,5.2498978E1,1.7684213E2,2.7080576E1,3.2993706E1,2.4557293E1,2.5538327E2,3.3503444E0,5.4963293E0,-3.3423287E-1,2.9019232E0,-3.5368843E0,-9.10933E-1,-5.2294397E0,-7.84279E0],"split_indices":[1,1,1,0,0,0,1,0,0,0,0,0,0,0,0],"split_type":[0,0,0,0,0,0,0,0,0,0,0,0,0,0,0],"sum_hessian":[6.989E3,3.496E3,3.493E3,3.223E3,2.73E2,1.581E3,1.912E3,1.438E3,1.785E3,2.01E2,7.2E1,5.6E2,1.021E3,1.201E3,7.11E2],"tree_param":{"num_deleted":"0","num_feature":"6","num_nodes":"15","size_leaf_vector":"1"}},{"base_weights":[-4.8699724E-3,3.411314E1,-4.2531784E1,4.08645E1,8.8068867E-1,-2.7883144E1,-6.3337368E1,2.3668678E0,4.6435995E0,-6.1437386E-1,2.6123173E0,-3.705447E0,-1.4409945E0,-8.5301485E0,-5.5056624E0],"categories":[],"categories_nodes":[],"categories_segments":[],"categories_sizes":[],"default_left":[0,0,0,0,0,0,0,0,0,0,0,0,0,0,0],"id":4,"left_children":[1,3,5,7,9,11,13,-1,-1,-1,-1,-1,-1,-1,-1],"loss_changes":[1.0143478E7,8.702725E5,9.466885E5,3.07781E5,1.1647848E5,2.2534675E5,2.290185E5,0E0,0E0,0E0,0E0,0E0,0E0,0E0,0E0],"parents":[2147483647,0,0,1,1,2,2,3,3,4,4,5,5,6,6],"right_children":[2,4,6,8,10,12,14,-1,-1,-1,-1,-1,-1,-1,-1],"split_conditions":[9.6780754E1,5.2498978E1,2.1734885E2,2.151637E1,3.3065968E1,2.9379284E1,2.1663662E1,2.3668678E0,4.6435995E0,-6.1437386E-1,2.6123173E0,-3.705447E0,-1.4409945E0,-8.5301485E0,-5.5056624E0],"split_indices":[1,1,1,0,0,0,0,0,0,0,0,0,0,0,0],"split_type":[0,0,0,0,0,0,0,0,0,0,0,0,0,0,0],"sum_hessian":[6.989E3,3.878E3,3.111E3,3.223E3,6.55E2,1.827E3,1.284E3,7.9E2,2.433E3,5.13E2,1.42E2,1.086E3,7.41E2,3.49E2,9.35E2],"tree_param":{"num_deleted":"0","num_feature":"6","num_nodes":"15","size_leaf_vector":"1"}},{"base_weights":[-5.8430443E-3,3.2221283E1,-3.648864E1,3.6943996E1,2.964025E0,-1.661679E1,-5.066968E1,2.9837224E0,4.961351E0,-6.6785085E-1,1.3369155E0,-3.145151E0,-8.5276806E-1,-4.9358025E0,-1.6116905E1],"categories":[],"categories_nodes":[],"categories_segments":[],"categories_sizes":[],"default_left":[0,0,0,0,0,0,0,0,0,0,0,0,0,0,0],"id":5,"left_children":[1,3,5,7,9,11,13,-1,-1,-1,-1,-1,-1,-1,-1],"loss_changes":[8.219569E6,5.12791E5,9.23192E5,2.86285E5,5.1960832E4,1.6377131E5,2.6931E5,0E0,0E0,0E0,0E0,0E0,0E0,0E0,0E0],"parents":[2147483647,0,0,1,1,2,2,3,3,4,4,5,5,6,6],"right_children":[2,4,6,8,10,12,14,-1,-1,-1,-1,-1,-1,-1,-1],"split_conditions":[8.54039E1,5.0266975E1,1.7684213E2,3.0461592E1,2.8556973E1,2.4557293E1,1E0,2.9837224E0,4.961351E0,-6.6785085E-1,1.3369155E0,-3.145151E0,-8.5276806E-1,-4.9358025E0,-1.6116905E1],"split_indices":[1,1,1,0,0,0,2,0,0,0,0,0,0,0,0],"split_type":[0,0,0,0,0,0,0,0,0,0,0,0,0,0,0],"sum_hessian":[6.989E3,3.711E3,3.278E3,3.195E3,5.16E2,1.366E3,1.912E3,2.049E3,1.146E3,2.68E2,2.48E2,4.81E2,8.85E2,1.891E3,2.1E1],"tree_param":{"num_deleted":"0","num_feature":"6","num_nodes":"15","size_leaf_vector":"1"}},{"base_weights":[-7.608746E-3,2.7693354E1,-3.4535896E1,3.3116837E1,9.9670815E-1,-2.3395584E1,-5.4273705E1,3.390478E0,-7.3354897E0,-2.278526E0,7.2604257E-1,-2.2466402E0,-1.3668727E1,-6.8198028E0,-4.329122E0],"categories":[],"categories_nodes":[],"categories_segments":[],"categories_sizes":[],"default_left":[0,0,0,0,0,0,0,0,0,0,0,0,0,0,0],"id":6,"left_children":[1,3,5,7,9,11,13,-1,-1,-1,-1,-1,-1,-1,-1],"loss_changes":[6.686659E6,5.6160275E5,6.8301325E5,2.7296025E5,9.7885516E4,2.0651875E5,1.68628E5,0E0,0E0,0E0,0E0,0E0,0E0,0E0,0E0],"parents":[2147483647,0,0,1,1,2,2,3,3,4,4,5,5,6,6],"right_children":[2,4,6,8,10,12,14,-1,-1,-1,-1,-1,-1,-1,-1],"split_conditions":[9.6780754E1,5.2498978E1,2.2795312E2,1E0,1.947251E1,1E0,2.659643E1,3.390478E0,-7.3354897E0,-2.278526E0,7.2604257E-1,-2.2466402E0,-1.3668727E1,-6.8198028E0,-4.329122E0],"split_indices":[1,1,1,2,0,2,0,0,0,0,0,0,0,0,0],"split_type":[0,0,0,0,0,0,0,0,0,0,0,0,0,0,0],"sum_hessian":[6.989E3,3.878E3,3.111E3,3.223E3,6.55E2,1.99E3,1.121E3,3.2E3,2.3E1,1.36E2,5.19E2,1.975E3,1.5E1,4.92E2,6.29E2],"tree_param":{"num_deleted":"0","num_feature":"6","num_nodes":"15","size_leaf_vector":"1"}},{"base_weights":[-1.1514555E-2,2.453954E1,-3.1587473E1,2.9939837E1,1.1196331E0,-2.1568281E1,-4.885627E1,-6.494083E-1,3.1988833E0,-1.2872797E0,6.896393E-1,-2.9995894E0,-8.8115895E-1,-5.477303E0,-2.6411254E0],"categories":[],"categories_nodes":[],"categories_segments":[],"categories_sizes":[],"default_left":[0,0,0,0,0,0,0,0,0,0,0,0,0,0,0],"id":7,"left_children":[1,3,5,7,9,11,13,-1,-1,-1,-1,-1,-1,-1,-1],"loss_changes":[5.419584E6,4.973905E5,5.280395E5,2.387985E5,5.974198E4,2.0797962E5,1.47557E5,0E0,0E0,0E0,0E0,0E0,0E0,0E0,0E0],"parents":[2147483647,0,0,1,1,2,2,3,3,4,4,5,5,6,6],"right_children":[2,4,6,8,10,12,14,-1,-1,-1,-1,-1,-1,-1,-1],"split_conditions":[9.997816E1,5.0266975E1,2.2795312E2,1.1392739E1,2.3413036E1,2.9379284E1,3.2818928E1,-6.494083E-1,3.1988833E0,-1.2872797E0,6.896393E-1,-2.9995894E0,-8.8115895E-1,-5.477303E0,-2.6411254E0],"split_indices":[1,1,1,0,0,0,0,0,0,0,0,0,0,0,0],"split_type":[0,0,0,0,0,0,0,0,0,0,0,0,0,0,0],"sum_hessian":[6.989E3,3.932E3,3.057E3,3.195E3,7.37E2,1.936E3,1.121E3,1.7E2,3.025E3,2.15E2,5.22E2,1.165E3,7.71E2,8.86E2,2.35E2],"tree_param":{"num_deleted":"0","num_feature":"6","num_nodes":"15","size_leaf_vector":"1"}},{"base_weights":[-1.1811379E-2,2.1257975E1,-2.9648243E1,2.6751215E1,-4.4713753E-1,-1.9187414E1,-4.197614E1,2.7504723E0,-7.149109E0,-2.7807388E0,3.2467353E-1,-3.942613E0,-1.4973749E0,-4.941416E0,-2.6701322E0],"categories":[],"categories_nodes":[],"categories_segments":[],"categories_sizes":[],"default_left":[0,0,0,0,0,0,0,0,0,0,0,0,0,0,0],"id":8,"left_children":[1,3,5,7,9,11,13,-1,-1,-1,-1,-1,-1,-1,-1],"loss_changes":[4.40685E6,4.8528375E5,3.75887E5,2.4240375E5,8.326701E4,1.3432131E5,1.5092375E5,0E0,0E0,0E0,0E0,0E0,0E0,0E0,0E0],"parents":[2147483647,0,0,1,1,2,2,3,3,4,4,5,5,6,6],"right_children":[2,4,6,8,10,12,14,-1,-1,-1,-1,-1,-1,-1,-1],"split_conditions":[1.0858663E2,5.4283985E1,2.1273941E2,1E0,1.4372847E1,1.7565357E1,3.0601751E1,2.7504723E0,-7.149109E0,-2.7807388E0,3.2467353E-1,-3.942613E0,-1.4973749E0,-4.941416E0,-2.6701322E0],"split_indices":[1,1,1,2,0,0,0,0,0,0,0,0,0,0,0],"split_type":[0,0,0,0,0,0,0,0,0,0,0,0,0,0,0],"sum_hessian":[6.989E3,4.069E3,2.92E3,3.247E3,8.22E2,1.581E3,1.339E3,3.223E3,2.4E1,9.7E1,7.25E2,2.71E2,1.31E3,8.99E2,4.4E2],"tree_param":{"num_deleted":"0","num_feature":"6","num_nodes":"15","size_leaf_vector":"1"}},{"base_weights":[-1.3483471E-2,1.827353E1,-2.803016E1,2.4074724E1,-9.13204E-1,-2.7001764E1,-1.2744471E1,1.78877E0,3.5048015E0,-4.309185E-1,2.4756544E0,-2.1183252E0,-4.3749485E0],"categories":[],"categories_nodes":[],"categories_segments":[],"categories_sizes":[],"default_left":[0,0,0,0,0,0,0,0,0,0,0,0,0],"id":9,"left_children":[1,3,5,7,9,11,-1,-1,-1,-1,-1,-1,-1],"loss_changes":[3.5817778E6,4.7084625E5,2.7883675E5,2.1988662E5,8.579869E4,2.6549288E5,0E0,0E0,0E0,0E0,0E0,0E0,0E0],"parents":[2147483647,0,0,1,1,2,2,3,3,4,4,5,5],"right_children":[2,4,6,8,10,12,-1,-1,-1,-1,-1,-1,-1],"split_conditions":[1.197754E2,5.4283985E1,1E0,3.0461592E1,3.4982323E1,2.5538327E2,-1.2744471E1,1.78877E0,3.5048015E0,-4.309185E-1,2.4756544E0,-2.1183252E0,-4.3749485E0],"split_indices":[1,1,2,0,0,1,0,0,0,0,0,0,0],"split_type":[0,0,0,0,0,0,0,0,0,0,0,0,0],"sum_hessian":[6.989E3,4.229E3,2.76E3,3.247E3,9.82E2,2.733E3,2.7E1,2.078E3,1.169E3,8.68E2,1.14E2,2.03E3,7.03E2],"tree_param":{"num_deleted":"0","num_feature":"6","num_nodes":"13","size_leaf_vector":"1"}},{"base_weights":[-1.3841706E-2,1.6190125E1,-2.567311E1,2.1864704E1,-4.6322417E-1,-2.4728289E1,-1.1515539E1,8.1538385E-1,2.636322E0,4.363322E-2,-9.765895E0,-4.0118003E0,-1.9421332E0],"categories":[],"categories_nodes":[],"categories_segments":[],"categories_sizes":[],"default_left":[0,0,0,0,0,0,0,0,0,0,0,0,0],"id":10,"left_children":[1,3,5,7,9,11,-1,-1,-1,-1,-1,-1,-1],"loss_changes":[2.906731E6,4.0494588E5,2.2593075E5,1.9690975E5,9.53446E4,2.1802162E5,0E0,0E0,0E0,0E0,0E0,0E0,0E0],"parents":[2147483647,0,0,1,1,2,2,3,3,4,4,5,5],"right_children":[2,4,6,8,10,12,-1,-1,-1,-1,-1,-1,-1],"split_conditions":[1.2371207E2,5.0266975E1,1E0,2.1663662E1,1E0,2.08281E1,-1.1515539E1,8.1538385E-1,2.636322E0,4.363322E-2,-9.765895E0,-4.0118003E0,-1.9421332E0],"split_indices":[1,1,2,0,2,0,0,0,0,0,0,0,0],"split_type":[0,0,0,0,0,0,0,0,0,0,0,0,0],"sum_hessian":[6.989E3,4.284E3,2.705E3,3.195E3,1.089E3,2.678E3,2.7E1,7.9E2,2.405E3,1.08E3,9E0,6.85E2,1.993E3],"tree_param":{"num_deleted":"0","num_feature":"6","num_nodes":"13","size_leaf_vector":"1"}},{"base_weights":[-1.5861105E-2,1.8346033E1,-1.8393517E1,1.9019451E1,-6.890506E1,-6.0811133E0,-2.8565931E1,1.4144706E0,2.9769566E0,1.8661225E0,-7.299073E0,-3.8626287E0,-3.8824633E-1,-4.319491E0,-2.3059545E0],"categories":[],"categories_nodes":[],"categories_segments":[],"categories_sizes":[],"default_left":[0,0,0,0,0,0,0,0,0,0,0,0,0,0,0],"id":11,"left_children":[1,3,5,7,9,11,13,-1,-1,-1,-1,-1,-1,-1,-1],"loss_changes":[2.3591028E6,2.0678188E5,4.3743875E5,1.814735E5,1.10218125E4,1.1305075E5,1.5310162E5,0E0,0E0,0E0,0E0,0E0,0E0,0E0,0E0],"parents":[2147483647,0,0,1,1,2,2,3,3,4,4,5,5,6,6],"right_children":[2,4,6,8,10,12,14,-1,-1,-1,-1,-1,-1,-1,-1],"split_conditions":[7.104842E1,1E0,1.7684213E2,3.1193699E1,4.3191414E0,1.1392739E1,2.1663662E1,1.4144706E0,2.9769566E0,1.8661225E0,-7.299073E0,-3.8626287E0,-3.8824633E-1,-4.319491E0,-2.3059545E0],"split_indices":[1,2,1,0,0,0,0,0,0,0,0,0,0,0,0],"split_type":[0,0,0,0,0,0,0,0,0,0,0,0,0,0,0],"sum_hessian":[6.989E3,3.496E3,3.493E3,3.47E3,2.6E1,1.581E3,1.912E3,2.389E3,1.081E3,1E0,2.5E1,9.9E1,1.482E3,5.21E2,1.391E3],"tree_param":{"num_deleted":"0","num_feature":"6","num_nodes":"15","size_leaf_vector":"1"}},{"base_weights":[-1.5979648E-2,1.2326054E1,-2.2353664E1,1.784648E1,-1.172118E0,-1.8452286E1,-4.052103E1,1.5493147E0,4.09364E0,-2.9918527E-2,-8.810664E0,-2.1778047E0,-1.361355E-1,-5.966842E0,-3.362112E0],"categories":[],"categories_nodes":[],"categories_segments":[],"categories_sizes":[],"default_left":[0,0,0,0,0,0,0,0,0,0,0,0,0,0,0],"id":12,"left_children":[1,3,5,7,9,11,13,-1,-1,-1,-1,-1,-1,-1,-1],"loss_changes":[1.9273658E6,3.3556494E5,1.7559638E5,1.7303081E5,9.9235125E4,1.16493125E5,5.5992438E4,0E0,0E0,0E0,0E0,0E0,0E0,0E0,0E0],"parents":[2147483647,0,0,1,1,2,2,3,3,4,4,5,5,6,6],"right_children":[2,4,6,8,10,12,14,-1,-1,-1,-1,-1,-1,-1,-1],"split_conditions":[1.396569E2,5.0266975E1,2.7263275E2,3.6137177E1,1E0,3.3559628E1,2.2351038E1,1.5493147E0,4.09364E0,-2.9918527E-2,-8.810664E0,-2.1778047E0,-1.361355E-1,-5.966842E0,-3.362112E0],"split_indices":[1,1,1,0,2,0,0,0,0,0,0,0,0,0,0],"split_type":[0,0,0,0,0,0,0,0,0,0,0,0,0,0,0],"sum_hessian":[6.989E3,4.502E3,2.487E3,3.195E3,1.307E3,2.049E3,4.38E2,2.901E3,2.94E2,1.295E3,1.2E1,1.715E3,3.34E2,1.14E2,3.24E2],"tree_param":{"num_deleted":"0","num_feature":"6","num_nodes":"15","size_leaf_vector":"1"}},{"base_weights":[-1.650903E-2,1.0657575E1,-2.1083176E1,1.5937051E1,-1.6600099E0,-2.0255661E1,-1.0047365E1,1.6545448E0,-6.3159366E0,-1.3637565E0,4.2599398E-1,-4.4251957E0,-1.7591189E0],"categories":[],"categories_nodes":[],"categories_segments":[],"categories_sizes":[],"default_left":[0,0,0,0,0,0,0,0,0,0,0,0,0],"id":13,"left_children":[1,3,5,7,9,11,-1,-1,-1,-1,-1,-1,-1],"loss_changes":[1.5720476E6,3.017675E5,1.5241806E5,1.5734538E5,9.883089E4,1.4806794E5,0E0,0E0,0E0,0E0,0E0,0E0,0E0],"parents":[2147483647,0,0,1,1,2,2,3,3,4,4,5,5],"right_children":[2,4,6,8,10,12,-1,-1,-1,-1,-1,-1,-1],"split_conditions":[1.481892E2,5.4283985E1,1E0,1E0,2.42718E1,1.3358125E1,-1.0047365E1,1.6545448E0,-6.3159366E0,-1.3637565E0,4.2599398E-1,-4.4251957E0,-1.7591189E0],"split_indices":[1,1,2,2,0,0,0,0,0,0,0,0,0],"split_type":[0,0,0,0,0,0,0,0,0,0,0,0,0],"sum_hessian":[6.989E3,4.639E3,2.35E3,3.247E3,1.392E3,2.327E3,2.3E1,3.223E3,2.4E1,4.6E2,9.32E2,2.31E2,2.096E3],"tree_param":{"num_deleted":"0","num_feature":"6","num_nodes":"13","size_leaf_vector":"1"}},{"base_weights":[-1.7974608E-2,9.590618E0,-1.8981756E1,1.4341914E1,-1.4946668E0,-1.544265E1,-3.4360638E1,-1.4261935E0,1.5965639E0,-4.3084723E-1,1.9472979E0,-2.11541E0,-6.7309654E-1,-5.09407E0,-2.8388124E0],"categories":[],"categories_nodes":[],"categories_segments":[],"categories_sizes":[],"default_left":[0,0,0,0,0,0,0,0,0,0,0,0,0,0,0],"id":14,"left_children":[1,3,5,7,9,11,13,-1,-1,-1,-1,-1,-1,-1,-1],"loss_changes":[1.2738666E6,2.4440778E5,1.2742844E5,1.5108038E5,8.226933E4,9.50415E4,4.202575E4,0E0,0E0,0E0,0E0,0E0,0E0,0E0,0E0],"parents":[2147483647,0,0,1,1,2,2,3,3,4,4,5,5,6,6],"right_children":[2,4,6,8,10,12,14,-1,-1,-1,-1,-1,-1,-1,-1],"split_conditions":[1.481892E2,5.4283985E1,2.7263275E2,1.1392739E1,3.4982323E1,2.9379284E1,2.2351038E1,-1.4261935E0,1.5965639E0,-4.3084723E-1,1.9472979E0,-2.11541E0,-6.7309654E-1,-5.09407E0,-2.8388124E0],"split_indices":[1,1,1,0,0,0,0,0,0,0,0,0,0,0,0],"split_type":[0,0,0,0,0,0,0,0,0,0,0,0,0,0,0],"sum_hessian":[6.989E3,4.639E3,2.35E3,3.247E3,1.392E3,1.912E3,4.38E2,1.74E2,3.073E3,1.228E3,1.64E2,1.154E3,7.58E2,1.14E2,3.24E2],"tree_param":{"num_deleted":"0","num_feature":"6","num_nodes":"15","size_leaf_vector":"1"}},{"base_weights":[-1.7466329E-2,1.03008175E1,-1.4394528E1,1.09087715E1,-6.4402855E1,-1.3668832E1,-8.888629E0,-7.3158187E-1,1.314518E0,-8.897753E0,-3.8980768E0,-9.641223E-1,-2.6184206E0],"categories":[],"categories_nodes":[],"categories_segments":[],"categories_sizes":[],"default_left":[0,0,0,0,0,0,0,0,0,0,0,0,0],"id":15,"left_children":[1,3,5,7,9,11,-1,-1,-1,-1,-1,-1,-1],"loss_changes":[1.037091E6,1.855474E5,1.5668944E5,1.646755E5,1.7147984E4,1.4562556E5,0E0,0E0,0E0,0E0,0E0,0E0,0E0],"parents":[2147483647,0,0,1,1,2,2,3,3,4,4,5,5],"right_children":[2,4,6,8,10,12,-1,-1,-1,-1,-1,-1,-1],"split_conditions":[1.0858663E2,1E0,1E0,1.4372847E1,2.8668743E1,2.5538327E2,-8.888629E0,-7.3158187E-1,1.314518E0,-8.897753E0,-3.8980768E0,-9.641223E-1,-2.6184206E0],"split_indices":[1,2,2,0,0,1,0,0,0,0,0,0,0],"split_type":[0,0,0,0,0,0,0,0,0,0,0,0,0],"sum_hessian":[6.989E3,4.069E3,2.92E3,4.037E3,3.2E1,2.893E3,2.7E1,4.41E2,3.596E3,1.5E1,1.7E1,2.19E3,7.03E2],"tree_param":{"num_deleted":"0","num_feature":"6","num_nodes":"13","size_leaf_vector":"1"}},{"base_weights":[-1.9254634E-2,7.596481E0,-1.6150883E1,1.198959E1,-1.4433982E0,-2.0112751E1,-4.5758905E0,9.915619E-1,3.23512E0,-7.7349186E-2,-7.5077853E0,-1.5814518E0,-2.9803255E0,-3.8029593E-1,-7.698407E0],"categories":[],"categories_nodes":[],"categories_segments":[],"categories_sizes":[],"default_left":[0,0,0,0,0,0,0,0,0,0,0,0,0,0,0],"id":16,"left_children":[1,3,5,7,9,11,13,-1,-1,-1,-1,-1,-1,-1,-1],"loss_changes":[8.588737E5,1.8861516E5,1.0272294E5,1.3464434E5,7.659792E4,6.908756E4,3.1776062E4,0E0,0E0,0E0,0E0,0E0,0E0,0E0,0E0],"parents":[2147483647,0,0,1,1,2,2,3,3,4,4,5,5,6,6],"right_children":[2,4,6,8,10,12,14,-1,-1,-1,-1,-1,-1,-1,-1],"split_conditions":[1.553316E2,5.0266975E1,3.1862745E1,3.6137177E1,1E0,2.5691022E2,1E0,9.915619E-1,3.23512E0,-7.7349186E-2,-7.5077853E0,-1.5814518E0,-2.9803255E0,-3.8029593E-1,-7.698407E0],"split_indices":[1,1,0,0,2,1,2,0,0,0,0,0,0,0,0],"split_type":[0,0,0,0,0,0,0,0,0,0,0,0,0,0,0],"sum_hessian":[6.989E3,4.748E3,2.241E3,3.195E3,1.553E3,1.669E3,5.72E2,2.901E3,2.94E2,1.54E3,1.3E1,1.158E3,5.11E2,5.67E2,5E0],"tree_param":{"num_deleted":"0","num_feature":"6","num_nodes":"15","size_leaf_vector":"1"}},{"base_weights":[-1.9623581E-2,9.974981E0,-1.0022804E1,-5.6473218E-2,1.3297183E1,-9.35879E0,-7.732075E1,-1.2424619E0,3.435792E-1,1.1344801E0,2.6947126E0,-2.3244095E-1,-1.5191042E0,-3.276509E0,-8.057565E0],"categories":[],"categories_nodes":[],"categories_segments":[],"categories_sizes":[],"default_left":[0,0,0,0,0,0,0,0,0,0,0,0,0,0,0],"id":17,"left_children":[1,3,5,7,9,11,13,-1,-1,-1,-1,-1,-1,-1,-1],"loss_changes":[6.9894506E5,1.1654359E5,1.5541197E5,3.7663656E4,6.9703625E4,1.4195666E5,2.2907656E3,0E0,0E0,0E0,0E0,0E0,0E0,0E0,0E0],"parents":[2147483647,0,0,1,1,2,2,3,3,4,4,5,5,6,6],"right_children":[2,4,6,8,10,12,14,-1,-1,-1,-1,-1,-1,-1,-1],"split_conditions":[7.104842E1,2.1663662E1,1E0,1.1392739E1,3.6137177E1,1.7684213E2,8.7520515E1,-1.2424619E0,3.435792E-1,1.1344801E0,2.6947126E0,-2.3244095E-1,-1.5191042E0,-3.276509E0,-8.057565E0],"split_indices":[1,0,2,0,0,1,1,0,0,0,0,0,0,0,0],"split_type":[0,0,0,0,0,0,0,0,0,0,0,0,0,0,0],"sum_hessian":[6.989E3,3.496E3,3.493E3,8.7E2,2.626E3,3.46E3,3.3E1,1.91E2,6.79E2,2.299E3,3.27E2,1.569E3,1.891E3,3E0,3E1],"tree_param":{"num_deleted":"0","num_feature":"6","num_nodes":"15","size_leaf_vector":"1"}},{"base_weights":[-1.9105935E-2,9.695562E0,-8.449035E0,1.01802435E1,-5.3196743E1,-1.7413086E1,-4.091714E0,4.2490527E-1,1.494738E0,2.5398865E0,-5.7529845E0,-1.505678E0,-4.0673404E0,5.7546582E-2,-1.2195294E0],"categories":[],"categories_nodes":[],"categories_segments":[],"categories_sizes":[],"default_left":[0,0,0,0,0,0,0,0,0,0,0,0,0,0,0],"id":18,"left_children":[1,3,5,7,9,11,13,-1,-1,-1,-1,-1,-1,-1,-1],"loss_changes":[5.725207E5,9.954941E4,1.4612753E5,9.109441E4,9.975266E3,6.647306E4,9.531559E4,0E0,0E0,0E0,0E0,0E0,0E0,0E0,0E0],"parents":[2147483647,0,0,1,1,2,2,3,3,4,4,5,5,6,6],"right_children":[2,4,6,8,10,12,14,-1,-1,-1,-1,-1,-1,-1,-1],"split_conditions":[5.4283985E1,1E0,2.383974E1,2.7080576E1,4.3191414E0,2.771751E2,2.0876804E2,4.2490527E-1,1.494738E0,2.5398865E0,-5.7529845E0,-1.505678E0,-4.0673404E0,5.7546582E-2,-1.2195294E0],"split_indices":[1,2,0,0,0,1,1,0,0,0,0,0,0,0,0],"split_type":[0,0,0,0,0,0,0,0,0,0,0,0,0,0,0],"sum_hessian":[6.989E3,3.247E3,3.742E3,3.223E3,2.4E1,1.223E3,2.519E3,1.437E3,1.786E3,1E0,2.3E1,1.112E3,1.11E2,1.599E3,9.2E2],"tree_param":{"num_deleted":"0","num_feature":"6","num_nodes":"15","size_leaf_vector":"1"}},{"base_weights":[-1.8352037E-2,5.65074E0,-1.2026604E1,6.1160073E0,-5.376695E1,-2.9820524E1,-1.0075821E1,4.0009925E-1,1.8872731E0,-7.2534523E0,-3.2169533E0,-2.5619347E0,-5.002045E0,-9.4294435E-1,-6.8408823E0],"categories":[],"categories_nodes":[],"categories_segments":[],"categories_sizes":[],"default_left":[0,0,0,0,0,0,0,0,0,0,0,0,0,0,0],"id":19,"left_children":[1,3,5,7,9,11,13,-1,-1,-1,-1,-1,-1,-1,-1],"loss_changes":[4.759184E5,1.3161539E5,7.752403E4,1.2708433E5,1.2663852E4,1.7473328E4,7.559475E4,0E0,0E0,0E0,0E0,0E0,0E0,0E0,0E0],"parents":[2147483647,0,0,1,1,2,2,3,3,4,4,5,5,6,6],"right_children":[2,4,6,8,10,12,14,-1,-1,-1,-1,-1,-1,-1,-1],"split_conditions":[1.553316E2,1E0,1.3358125E1,3.4555664E1,2.9102152E1,2.771751E2,1E0,4.0009925E-1,1.8872731E0,-7.2534523E0,-3.2169533E0,-2.5619347E0,-5.002045E0,-9.4294435E-1,-6.8408823E0],"split_indices":[1,2,0,0,0,1,2,0,0,0,0,0,0,0,0],"split_type":[0,0,0,0,0,0,0,0,0,0,0,0,0,0,0],"sum_hessian":[6.989E3,4.748E3,2.241E3,4.712E3,3.6E1,2.2E2,2.021E3,4.043E3,6.69E2,1.8E1,1.8E1,1.84E2,3.6E1,2E3,2.1E1],"tree_param":{"num_deleted":"0","num_feature":"6","num_nodes":"15","size_leaf_vector":"1"}},{"base_weights":[-1.9878572E-2,8.151152E0,-7.11031E0,-1.2081816E1,9.300344E0,-1.1737744E1,-2.973328E-1,-7.06181E-1,-3.711144E0,7.8625053E-1,2.2520494E0,-9.154283E-1,-2.321145E0,3.068263E-1,-9.623144E-1],"categories":[],"categories_nodes":[],"categories_segments":[],"categories_sizes":[],"default_left":[0,0,0,0,0,0,0,0,0,0,0,0,0,0,0],"id":20,"left_children":[1,3,5,7,9,11,13,-1,-1,-1,-1,-1,-1,-1,-1],"loss_changes":[4.050315E5,7.5633516E4,1.1800061E5,2.1726477E4,5.8254875E4,6.585925E4,4.7580688E4,0E0,0E0,0E0,0E0,0E0,0E0,0E0,0E0],"parents":[2147483647,0,0,1,1,2,2,3,3,4,4,5,5,6,6],"right_children":[2,4,6,8,10,12,14,-1,-1,-1,-1,-1,-1,-1,-1],"split_conditions":[5.4283985E1,1.1392739E1,2.9379284E1,1.0624193E1,3.6137177E1,2.5691022E2,2.3811034E2,-7.06181E-1,-3.711144E0,7.8625053E-1,2.2520494E0,-9.154283E-1,-2.321145E0,3.068263E-1,-9.623144E-1],"split_indices":[1,0,0,0,0,1,1,0,0,0,0,0,0,0,0],"split_type":[0,0,0,0,0,0,0,0,0,0,0,0,0,0,0],"sum_hessian":[6.989E3,3.247E3,3.742E3,1.74E2,3.073E3,2.228E3,1.514E3,1.46E2,2.8E1,2.773E3,3E2,1.82E3,4.08E2,1.113E3,4.01E2],"tree_param":{"num_deleted":"0","num_feature":"6","num_nodes":"15","size_leaf_vector":"1"}},{"base_weights":[-1.864709E-2,7.335605E0,-6.4003177E0,7.726554E0,-4.3374527E1,-5.8704314E0,-6.0800808E1,-2.5075516E-1,9.655096E-1,2.810875E0,-4.75242E0,-8.5254526E-1,4.7719055E-1,-3.0766907E0,-6.4652505E0],"categories":[],"categories_nodes":[],"categories_segments":[],"categories_sizes":[],"default_left":[0,0,0,0,0,0,0,0,0,0,0,0,0,0,0],"id":21,"left_children":[1,3,5,7,9,11,13,-1,-1,-1,-1,-1,-1,-1,-1],"loss_changes":[3.2810456E5,6.472689E4,1.07539016E5,6.3655984E4,8.751641E3,1.0481254E5,2.175375E3,0E0,0E0,0E0,0E0,0E0,0E0,0E0,0E0],"parents":[2147483647,0,0,1,1,2,2,3,3,4,4,5,5,6,6],"right_children":[2,4,6,8,10,12,14,-1,-1,-1,-1,-1,-1,-1,-1],"split_conditions":[5.4283985E1,1E0,1E0,1.7144289E1,4.3191414E0,3.2993706E1,8.7520515E1,-2.5075516E-1,9.655096E-1,2.810875E0,-4.75242E0,-8.5254526E-1,4.7719055E-1,-3.0766907E0,-6.4652505E0],"split_indices":[1,2,2,0,0,0,1,0,0,0,0,0,0,0,0],"split_type":[0,0,0,0,0,0,0,0,0,0,0,0,0,0,0],"sum_hessian":[6.989E3,3.247E3,3.742E3,3.223E3,2.4E1,3.707E3,3.5E1,5.11E2,2.712E3,1E0,2.3E1,2.967E3,7.4E2,5E0,3E1],"tree_param":{"num_deleted":"0","num_feature":"6","num_nodes":"15","size_leaf_vector":"1"}},{"base_weights":[-1.8383604E-2,4.3510756E0,-9.273755E0,-1.4186264E1,5.46731E0,-2.4635778E1,-7.590134E0,-1.1998702E0,-6.986301E0,5.8294E-1,-4.5045295E0,-2.1016629E0,-4.2065697E0,-7.068016E-1,-5.4734135E0],"categories":[],"categories_nodes":[],"categories_segments":[],"categories_sizes":[],"default_left":[0,0,0,0,0,0,0,0,0,0,0,0,0,0,0],"id":22,"left_children":[1,3,5,7,9,11,13,-1,-1,-1,-1,-1,-1,-1,-1],"loss_changes":[2.827227E5,9.834397E4,5.7799703E4,3.2046738E4,8.220216E4,1.3056922E4,4.938411E4,0E0,0E0,0E0,0E0,0E0,0E0,0E0,0E0],"parents":[2147483647,0,0,1,1,2,2,3,3,4,4,5,5,6,6],"right_children":[2,4,6,8,10,12,14,-1,-1,-1,-1,-1,-1,-1,-1],"split_conditions":[1.553316E2,1.1392739E1,1.3358125E1,1.481892E2,1E0,2.771751E2,1E0,-1.1998702E0,-6.986301E0,5.8294E-1,-4.5045295E0,-2.1016629E0,-4.2065697E0,-7.068016E-1,-5.4734135E0],"split_indices":[1,0,0,1,2,1,2,0,0,0,0,0,0,0,0],"split_type":[0,0,0,0,0,0,0,0,0,0,0,0,0,0,0],"sum_hessian":[6.989E3,4.748E3,2.241E3,2.69E2,4.479E3,2.2E2,2.021E3,2.6E2,9E0,4.448E3,3.1E1,1.84E2,3.6E1,2E3,2.1E1],"tree_param":{"num_deleted":"0","num_feature":"6","num_nodes":"15","size_leaf_vector":"1"}},{"base_weights":[-2.0072427E-2,6.2397757E0,-5.2918653E0,1.4209963E0,1.0121222E1,-1.3067804E1,-2.6431024E0,1.8297632E-1,-5.13648E0,8.267504E-1,1.9361782E0,-1.1075419E0,-3.253143E0,-2.1852627E-1,-4.8414435E0],"categories":[],"categories_nodes":[],"categories_segments":[],"categories_sizes":[],"default_left":[0,0,0,0,0,0,0,0,0,0,0,0,0,0,0],"id":23,"left_children":[1,3,5,7,9,11,13,-1,-1,-1,-1,-1,-1,-1,-1],"loss_changes":[2.3070738E5,5.9763062E4,7.812965E4,3.0884484E4,3.0158938E4,3.702272E4,5.9241402E4,0E0,0E0,0E0,0E0,0E0,0E0,0E0,0E0],"parents":[2147483647,0,0,1,1,2,2,3,3,4,4,5,5,6,6],"right_children":[2,4,6,8,10,12,14,-1,-1,-1,-1,-1,-1,-1,-1],"split_conditions":[5.0266975E1,2.7080576E1,2.1180576E1,1E0,3.6137177E1,2.771751E2,1E0,1.8297632E-1,-5.13648E0,8.267504E-1,1.9361782E0,-1.1075419E0,-3.253143E0,-2.1852627E-1,-4.8414435E0],"split_indices":[1,0,0,2,0,1,2,0,0,0,0,0,0,0,0],"split_type":[0,0,0,0,0,0,0,0,0,0,0,0,0,0,0],"sum_hessian":[6.989E3,3.195E3,3.794E3,1.426E3,1.769E3,9.63E2,2.831E3,1.416E3,1E1,1.475E3,2.94E2,8.75E2,8.8E1,2.804E3,2.7E1],"tree_param":{"num_deleted":"0","num_feature":"6","num_nodes":"15","size_leaf_vector":"1"}},{"base_weights":[-1.9719003E-2,3.262215E0,-8.731502E0,-1.3529243E1,4.282067E0,-1.1174526E1,1.4187025E0,-1.0438788E0,-3.911246E0,4.581959E-1,-3.778464E0,-7.7141184E-1,-1.7437176E0,3.2741877E-1,-1.9842968E0],"categories":[],"categories_nodes":[],"categories_segments":[],"categories_sizes":[],"default_left":[0,0,0,0,0,0,0,0,0,0,0,0,0,0,0],"id":24,"left_children":[1,3,5,7,9,11,13,-1,-1,-1,-1,-1,-1,-1,-1],"loss_changes":[1.99883E5,8.7017695E4,4.745292E4,2.2599285E4,6.0575984E4,3.3282656E4,1.4740636E4,0E0,0E0,0E0,0E0,0E0,0E0,0E0,0E0],"parents":[2147483647,0,0,1,1,2,2,3,3,4,4,5,5,6,6],"right_children":[2,4,6,8,10,12,14,-1,-1,-1,-1,-1,-1,-1,-1],"split_conditions":[1.7684213E2,1.1392739E1,3.2993706E1,1.481892E2,1E0,2.5691022E2,2.9047974E2,-1.0438788E0,-3.911246E0,4.581959E-1,-3.778464E0,-7.7141184E-1,-1.7437176E0,3.2741877E-1,-1.9842968E0],"split_indices":[1,0,0,1,2,1,1,0,0,0,0,0,0,0,0],"split_type":[0,0,0,0,0,0,0,0,0,0,0,0,0,0,0],"sum_hessian":[6.989E3,5.077E3,1.912E3,2.9E2,4.787E3,1.541E3,3.71E2,2.6E2,3E1,4.754E3,3.3E1,9.94E2,5.47E2,3.42E2,2.9E1],"tree_param":{"num_deleted":"0","num_feature":"6","num_nodes":"15","size_leaf_vector":"1"}},{"base_weights":[-1.9523205E-2,4.3294597E0,-5.4403734E0,1.2707475E0,9.53222E0,-5.008223E0,-4.822898E1,1.5433875E-1,-4.6161976E0,8.4417766E-1,2.555644E0,-1.0469171E0,-2.0317407E-1,-3.8731134E0,-5.6995573E0],"categories":[],"categories_nodes":[],"categories_segments":[],"categories_sizes":[],"default_left":[0,0,0,0,0,0,0,0,0,0,0,0,0,0,0],"id":25,"left_children":[1,3,5,7,9,11,13,-1,-1,-1,-1,-1,-1,-1,-1],"loss_changes":[1.6481408E5,6.171729E4,5.7302805E4,3.1677176E4,2.4876219E4,5.0074836E4,3.7367188E2,0E0,0E0,0E0,0E0,0E0,0E0,0E0,0E0],"parents":[2147483647,0,0,1,1,2,2,3,3,4,4,5,5,6,6],"right_children":[2,4,6,8,10,12,14,-1,-1,-1,-1,-1,-1,-1,-1],"split_conditions":[9.6780754E1,3.0208864E1,1E0,1E0,3.9641796E1,2.433809E1,2.7973547E1,1.5433875E-1,-4.6161976E0,8.4417766E-1,2.555644E0,-1.0469171E0,-2.0317407E-1,-3.8731134E0,-5.6995573E0],"split_indices":[1,0,2,2,0,0,0,0,0,0,0,0,0,0,0],"split_type":[0,0,0,0,0,0,0,0,0,0,0,0,0,0,0],"sum_hessian":[6.989E3,3.878E3,3.111E3,2.443E3,1.435E3,3.081E3,3E1,2.43E3,1.3E1,1.345E3,9E1,1.086E3,1.995E3,1.7E1,1.3E1],"tree_param":{"num_deleted":"0","num_feature":"6","num_nodes":"15","size_leaf_vector":"1"}},{"base_weights":[-1.9275673E-2,2.7273057E0,-7.309982E0,-1.1951464E1,3.6188667E0,-9.442401E0,1.548889E0,-9.249558E-1,-3.431424E0,2.3501734E-1,1.1912619E0,-6.3249964E-1,-1.5085421E0,3.2144105E-1,-1.7545203E0],"categories":[],"categories_nodes":[],"categories_segments":[],"categories_sizes":[],"default_left":[0,0,0,0,0,0,0,0,0,0,0,0,0,0,0],"id":26,"left_children":[1,3,5,7,9,11,13,-1,-1,-1,-1,-1,-1,-1,-1],"loss_changes":[1.3999131E5,6.649914E4,3.6152773E4,1.726545E4,5.0352418E4,2.7030797E4,1.1886601E4,0E0,0E0,0E0,0E0,0E0,0E0,0E0,0E0],"parents":[2147483647,0,0,1,1,2,2,3,3,4,4,5,5,6,6],"right_children":[2,4,6,8,10,12,14,-1,-1,-1,-1,-1,-1,-1,-1],"split_conditions":[1.7684213E2,1.1392739E1,3.2993706E1,1.481892E2,3.4982323E1,2.5691022E2,2.9047974E2,-9.249558E-1,-3.431424E0,2.3501734E-1,1.1912619E0,-6.3249964E-1,-1.5085421E0,3.2144105E-1,-1.7545203E0],"split_indices":[1,0,0,1,0,1,1,0,0,0,0,0,0,0,0],"split_type":[0,0,0,0,0,0,0,0,0,0,0,0,0,0,0],"sum_hessian":[6.989E3,5.077E3,1.912E3,2.9E2,4.787E3,1.541E3,3.71E2,2.6E2,3E1,4.153E3,6.34E2,9.94E2,5.47E2,3.42E2,2.9E1],"tree_param":{"num_deleted":"0","num_feature":"6","num_nodes":"15","size_leaf_vector":"1"}},{"base_weights":[-1.8292308E-2,4.66403E0,-3.772593E0,-3.1748958E0,6.1307406E0,-3.4128861E0,-4.1041252E1,-1.177831E0,2.3890977E-1,5.0079584E-1,1.5103507E0,-5.2428013E-1,3.8520783E-1,-3.6988125E0,-5.958366E0],"categories":[],"categories_nodes":[],"categories_segments":[],"categories_sizes":[],"default_left":[0,0,0,0,0,0,0,0,0,0,0,0,0,0,0],"id":27,"left_children":[1,3,5,7,9,11,13,-1,-1,-1,-1,-1,-1,-1,-1],"loss_changes":[1.22893734E5,3.5787977E4,5.18744E4,2.3531986E4,2.632954E4,5.112337E4,5.7683984E2,0E0,0E0,0E0,0E0,0E0,0E0,0E0,0E0],"parents":[2147483647,0,0,1,1,2,2,3,3,4,4,5,5,6,6],"right_children":[2,4,6,8,10,12,14,-1,-1,-1,-1,-1,-1,-1,-1],"split_conditions":[9.722162E0,1.7144289E1,1E0,3.8045244E0,3.6137177E1,3.2993706E1,2.8804922E2,-1.177831E0,2.3890977E-1,5.0079584E-1,1.5103507E0,-5.2428013E-1,3.8520783E-1,-3.6988125E0,-5.958366E0],"split_indices":[1,0,2,1,0,0,1,0,0,0,0,0,0,0,0],"split_type":[0,0,0,0,0,0,0,0,0,0,0,0,0,0,0],"sum_hessian":[6.989E3,3.11E3,3.879E3,4.9E2,2.62E3,3.843E3,3.6E1,1.92E2,2.98E2,2.33E3,2.9E2,3.07E3,7.73E2,3.2E1,4E0],"tree_param":{"num_deleted":"0","num_feature":"6","num_nodes":"15","size_leaf_vector":"1"}},{"base_weights":[-1.7703049E-2,2.3080225E0,-6.191261E0,-1.037932E1,3.0786383E0,-1.3039968E1,-3.8817167E0,-7.951388E-1,-3.0486126E0,3.3228368E-1,-3.1163766E0,-1.0513763E0,-2.4388664E0,-1.8276262E-1,-1.0628914E0],"categories":[],"categories_nodes":[],"categories_segments":[],"categories_sizes":[],"default_left":[0,0,0,0,0,0,0,0,0,0,0,0,0,0,0],"id":28,"left_children":[1,3,5,7,9,11,13,-1,-1,-1,-1,-1,-1,-1,-1],"loss_changes":[1.0037673E5,4.96799E4,3.020804E4,1.3963621E4,4.0140504E4,1.3562102E4,1.9827164E4,0E0,0E0,0E0,0E0,0E0,0E0,0E0,0E0],"parents":[2147483647,0,0,1,1,2,2,3,3,4,4,5,5,6,6],"right_children":[2,4,6,8,10,12,14,-1,-1,-1,-1,-1,-1,-1,-1],"split_conditions":[1.7684213E2,1.1392739E1,2.08281E1,1.481892E2,1E0,2.771751E2,2.7263275E2,-7.951388E-1,-3.0486126E0,3.3228368E-1,-3.1163766E0,-1.0513763E0,-2.4388664E0,-1.8276262E-1,-1.0628914E0],"split_indices":[1,0,0,1,2,1,1,0,0,0,0,0,0,0,0],"split_type":[0,0,0,0,0,0,0,0,0,0,0,0,0,0,0],"sum_hessian":[6.989E3,5.077E3,1.912E3,2.9E2,4.787E3,4.81E2,1.431E3,2.6E2,3E1,4.754E3,3.3E1,3.95E2,8.6E1,1.098E3,3.33E2],"tree_param":{"num_deleted":"0","num_feature":"6","num_nodes":"15","size_leaf_vector":"1"}},{"base_weights":[-1.7550962E-2,3.9448314E0,-3.194601E0,5.808561E-1,6.633341E0,-5.886577E0,7.6571673E-1,1.7900982E-1,-1.0893023E0,1.2888565E0,5.0760317E-1,-5.5701935E-1,-3.853727E0,1.9801876E-1,-8.6304456E-1],"categories":[],"categories_nodes":[],"categories_segments":[],"categories_sizes":[],"default_left":[0,0,0,0,0,0,0,0,0,0,0,0,0,0,0],"id":29,"left_children":[1,3,5,7,9,11,13,-1,-1,-1,-1,-1,-1,-1,-1],"loss_changes":[8.8007516E4,2.813229E4,4.1369496E4,1.9208205E4,1.6777305E4,2.364796E4,1.7944344E4,0E0,0E0,0E0,0E0,0E0,0E0,0E0,0E0],"parents":[2147483647,0,0,1,1,2,2,3,3,4,4,5,5,6,6],"right_children":[2,4,6,8,10,12,14,-1,-1,-1,-1,-1,-1,-1,-1],"split_conditions":[9.722162E0,2.7080576E1,2.9379284E1,2.6305779E1,2.0318947E0,1E0,2.7263275E2,1.7900982E-1,-1.0893023E0,1.2888565E0,5.0760317E-1,-5.5701935E-1,-3.853727E0,1.9801876E-1,-8.6304456E-1],"split_indices":[1,0,0,0,1,2,1,0,0,0,0,0,0,0,0],"split_type":[0,0,0,0,0,0,0,0,0,0,0,0,0,0,0],"sum_hessian":[6.989E3,3.11E3,3.879E3,1.382E3,1.728E3,2.309E3,1.57E3,1.251E3,1.31E2,3.43E2,1.385E3,2.288E3,2.1E1,1.391E3,1.79E2],"tree_param":{"num_deleted":"0","num_feature":"6","num_nodes":"15","size_leaf_vector":"1"}},{"base_weights":[-1.6407164E-2,3.550616E0,-2.876457E0,2.6149008E0,1.2609386E1,-2.5818443E0,-3.340657E1,-8.606206E-1,3.2527262E-1,-3.5890317E-1,1.7101005E0,-4.0916777E-1,3.4120584E-1,-5.2253714E0,-2.9538624E0],"categories":[],"categories_nodes":[],"categories_segments":[],"categories_sizes":[],"default_left":[0,0,0,0,0,0,0,0,0,0,0,0,0,0,0],"id":30,"left_children":[1,3,5,7,9,11,13,-1,-1,-1,-1,-1,-1,-1,-1],"loss_changes":[7.132124E4,2.6337203E4,3.481262E4,2.0218186E4,2.1233703E4,3.4801375E4,1.1537891E3,0E0,0E0,0E0,0E0,0E0,0E0,0E0,0E0],"parents":[2147483647,0,0,1,1,2,2,3,3,4,4,5,5,6,6],"right_children":[2,4,6,8,10,12,14,-1,-1,-1,-1,-1,-1,-1,-1],"split_conditions":[9.722162E0,3.6137177E1,1E0,1.1097147E1,5E0,3.2993706E1,1.4372847E1,-8.606206E-1,3.2527262E-1,-3.5890317E-1,1.7101005E0,-4.0916777E-1,3.4120584E-1,-5.2253714E0,-2.9538624E0],"split_indices":[1,0,2,0,4,0,0,0,0,0,0,0,0,0,0],"split_type":[0,0,0,0,0,0,0,0,0,0,0,0,0,0,0],"sum_hessian":[6.989E3,3.11E3,3.879E3,2.82E3,2.9E2,3.843E3,3.6E1,1.51E2,2.669E3,6.3E1,2.27E2,3.07E3,7.73E2,4E0,3.2E1],"tree_param":{"num_deleted":"0","num_feature":"6","num_nodes":"15","size_leaf_vector":"1"}},{"base_weights":[-1.5818493E-2,1.3086209E0,-6.9437323E0,-7.412499E0,2.3216074E0,-8.996309E0,1.3713505E0,-4.172332E-1,-1.902624E0,1.3507502E-1,8.430344E-1,-8.599678E-1,-3.7630413E0,1.4182673E0,-6.6224545E-1],"categories":[],"categories_nodes":[],"categories_segments":[],"categories_sizes":[],"default_left":[0,0,0,0,0,0,0,0,0,0,0,0,0,0,0],"id":31,"left_children":[1,3,5,7,9,11,13,-1,-1,-1,-1,-1,-1,-1,-1],"loss_changes":[6.4146543E4,5.186616E4,1.9161914E4,2.2912832E4,3.1178225E4,9.897859E3,2.2931623E4,0E0,0E0,0E0,0E0,0E0,0E0,0E0,0E0],"parents":[2147483647,0,0,1,1,2,2,3,3,4,4,5,5,6,6],"right_children":[2,4,6,8,10,12,14,-1,-1,-1,-1,-1,-1,-1,-1],"split_conditions":[2.2795312E2,1.3984114E1,3.2993706E1,1.4454951E2,3.4982323E1,1E0,3.477445E1,-4.172332E-1,-1.902624E0,1.3507502E-1,8.430344E-1,-8.599678E-1,-3.7630413E0,1.4182673E0,-6.6224545E-1],"split_indices":[1,0,0,1,0,2,0,0,0,0,0,0,0,0,0],"split_type":[0,0,0,0,0,0,0,0,0,0,0,0,0,0,0],"sum_hessian":[6.989E3,5.868E3,1.121E3,6.1E2,5.258E3,8.99E2,2.22E2,4.78E2,1.32E2,4.538E3,7.2E2,8.88E2,1.1E1,8.5E1,1.37E2],"tree_param":{"num_deleted":"0","num_feature":"6","num_nodes":"15","size_leaf_vector":"1"}},{"base_weights":[-1.4980042E-2,1.8777114E0,-4.024069E0,2.108002E0,-2.7507061E1,-3.0937357E0,-1.382937E1,1.725451E-1,1.9045038E0,3.4699922E0,-3.0198922E0,-1.0705985E0,-1.9911863E-1,-8.1164485E-1,-2.0340784E0],"categories":[],"categories_nodes":[],"categories_segments":[],"categories_sizes":[],"default_left":[0,0,0,0,0,0,0,0,0,0,0,0,0,0,0],"id":32,"left_children":[1,3,5,7,9,11,13,-1,-1,-1,-1,-1,-1,-1,-1],"loss_changes":[5.3047453E4,3.2194623E4,2.040918E4,3.050398E4,7.2436387E3,1.7175695E4,7.051547E3,0E0,0E0,0E0,0E0,0E0,0E0,0E0,0E0],"parents":[2147483647,0,0,1,1,2,2,3,3,4,4,5,5,6,6],"right_children":[2,4,6,8,10,12,14,-1,-1,-1,-1,-1,-1,-1,-1],"split_conditions":[1.553316E2,1E0,2.8804922E2,3.9641796E1,4.3191414E0,1.5006865E1,7E0,1.725451E-1,1.9045038E0,3.4699922E0,-3.0198922E0,-1.0705985E0,-1.9911863E-1,-8.1164485E-1,-2.0340784E0],"split_indices":[1,2,1,0,0,0,4,0,0,0,0,0,0,0,0],"split_type":[0,0,0,0,0,0,0,0,0,0,0,0,0,0,0],"sum_hessian":[6.989E3,4.748E3,2.241E3,4.712E3,3.6E1,2.048E3,1.93E2,4.609E3,1.03E2,1E0,3.5E1,2.58E2,1.79E3,1.04E2,8.9E1],"tree_param":{"num_deleted":"0","num_feature":"6","num_nodes":"15","size_leaf_vector":"1"}},{"base_weights":[-1.3707865E-2,2.8285897E0,-2.2926702E0,-1.4603275E0,4.306432E0,-2.0460238E0,-2.7855251E1,-5.986575E-1,5.1798815E-1,1.6446351E0,3.6524415E-1,-4.0929434E-1,9.664724E-2,-2.4307506E0,-4.569931E0],"categories":[],"categories_nodes":[],"categories_segments":[],"categories_sizes":[],"default_left":[0,0,0,0,0,0,0,0,0,0,0,0,0,0,0],"id":33,"left_children":[1,3,5,7,9,11,13,-1,-1,-1,-1,-1,-1,-1,-1],"loss_changes":[4.5284133E4,1.9724875E4,2.4406074E4,2.401508E4,1.831168E4,2.3707352E4,1.2314902E3,0E0,0E0,0E0,0E0,0E0,0E0,0E0,0E0],"parents":[2147483647,0,0,1,1,2,2,3,3,4,4,5,5,6,6],"right_children":[2,4,6,8,10,12,14,-1,-1,-1,-1,-1,-1,-1,-1],"split_conditions":[9.722162E0,2.2184155E1,1E0,6.023344E0,2.363976E1,2.9379284E1,2.8804922E2,-5.986575E-1,5.1798815E-1,1.6446351E0,3.6524415E-1,-4.0929434E-1,9.664724E-2,-2.4307506E0,-4.569931E0],"split_indices":[1,0,2,1,0,0,1,0,0,0,0,0,0,0,0],"split_type":[0,0,0,0,0,0,0,0,0,0,0,0,0,0,0],"sum_hessian":[6.989E3,3.11E3,3.879E3,7.97E2,2.313E3,3.843E3,3.6E1,4.74E2,3.23E2,1.17E2,2.196E3,2.288E3,1.555E3,3.2E1,4E0],"tree_param":{"num_deleted":"0","num_feature":"6","num_nodes":"15","size_leaf_vector":"1"}},{"base_weights":[-1.310301E-2,1.0394396E0,-5.5187707E0,-6.3012156E0,1.8920923E0,-7.26844E0,1.5674207E0,-4.0056944E-1,-1.7717043E0,2.0683399E-1,-2.1750982E0,-6.6182727E-1,-2.4697397E0,1.412883E0,-5.154205E-1],"categories":[],"categories_nodes":[],"categories_segments":[],"categories_sizes":[],"default_left":[0,0,0,0,0,0,0,0,0,0,0,0,0,0,0],"id":34,"left_children":[1,3,5,7,9,11,13,-1,-1,-1,-1,-1,-1,-1,-1],"loss_changes":[4.0512434E4,3.674617E4,1.3922496E4,1.5940453E4,2.19594E4,1.0035102E4,1.8901402E4,0E0,0E0,0E0,0E0,0E0,0E0,0E0,0E0],"parents":[2147483647,0,0,1,1,2,2,3,3,4,4,5,5,6,6],"right_children":[2,4,6,8,10,12,14,-1,-1,-1,-1,-1,-1,-1,-1],"split_conditions":[2.2795312E2,1.3984114E1,3.2993706E1,1.6319403E2,1E0,3.2515656E1,3.465094E1,-4.0056944E-1,-1.7717043E0,2.0683399E-1,-2.1750982E0,-6.6182727E-1,-2.4697397E0,1.412883E0,-5.154205E-1],"split_indices":[1,0,0,1,2,0,0,0,0,0,0,0,0,0,0],"split_type":[0,0,0,0,0,0,0,0,0,0,0,0,0,0,0],"sum_hessian":[6.989E3,5.868E3,1.121E3,6.1E2,5.258E3,8.99E2,2.22E2,5.09E2,1.01E2,5.22E3,3.8E1,8.68E2,3.1E1,7.7E1,1.45E2],"tree_param":{"num_deleted":"0","num_feature":"6","num_nodes":"15","size_leaf_vector":"1"}},{"base_weights":[-1.2714179E-2,1.8942706E-1,-2.3363186E1,2.509175E0,-1.8275785E0,3.346454E0,-2.4893562E1,8.8931374E-2,5.394528E-1,-1.2234291E0,-1.2370477E-1,-4.8224936E0,-2.0288153E0],"categories":[],"categories_nodes":[],"categories_segments":[],"categories_sizes":[],"default_left":[0,0,0,0,0,0,0,0,0,0,0,0,0],"id":35,"left_children":[1,3,5,7,9,-1,11,-1,-1,-1,-1,-1,-1],"loss_changes":[3.299788E4,3.2434348E4,6.051123E3,1.506377E4,2.277232E4,0E0,5.3611875E3,0E0,0E0,0E0,0E0,0E0,0E0],"parents":[2147483647,0,0,1,1,2,2,3,3,4,4,6,6],"right_children":[2,4,6,8,10,-1,12,-1,-1,-1,-1,-1,-1],"split_conditions":[1E0,5.4283985E1,4.3191414E0,3.0461592E1,1.0897684E1,3.346454E0,2.4397418E0,8.8931374E-2,5.394528E-1,-1.2234291E0,-1.2370477E-1,-4.8224936E0,-2.0288153E0],"split_indices":[2,1,0,0,0,0,1,0,0,0,0,0,0],"split_type":[0,0,0,0,0,0,0,0,0,0,0,0,0],"sum_hessian":[6.989E3,6.93E3,5.9E1,3.223E3,3.707E3,1E0,5.8E1,2.065E3,1.158E3,1.98E2,3.509E3,8E0,5E1],"tree_param":{"num_deleted":"0","num_feature":"6","num_nodes":"13","size_leaf_vector":"1"}},{"base_weights":[-1.2035642E-2,5.32161E-1,-8.13405E0,-1.825212E1,7.55425E-1,-8.738872E0,2.554306E1,-5.985451E-1,-2.475641E0,-5.6734553E-4,5.6858724E-1,-7.2325003E-1,-1.9149536E0,3.723972E0,-6.3646144E-1],"categories":[],"categories_nodes":[],"categories_segments":[],"categories_sizes":[],"default_left":[0,0,0,0,0,0,0,0,0,0,0,0,0,0,0],"id":36,"left_children":[1,3,5,7,9,11,13,-1,-1,-1,-1,-1,-1,-1,-1],"loss_changes":[3.089994E4,2.7491912E4,9.165049E3,5.995342E3,2.4301582E4,6.6362656E3,3.2227222E3,0E0,0E0,0E0,0E0,0E0,0E0,0E0,0E0],"parents":[2147483647,0,0,1,1,2,2,3,3,4,4,5,5,6,6],"right_children":[2,4,6,8,10,12,14,-1,-1,-1,-1,-1,-1,-1,-1],"split_conditions":[2.7263275E2,6.626638E0,3.9641796E1,4.3191414E0,3.465094E1,3.477445E1,4.1441048E1,-5.985451E-1,-2.475641E0,-5.6734553E-4,5.6858724E-1,-7.2325003E-1,-1.9149536E0,3.723972E0,-6.3646144E-1],"split_indices":[1,0,0,0,0,0,0,0,0,0,0,0,0,0,0],"split_type":[0,0,0,0,0,0,0,0,0,0,0,0,0,0,0],"sum_hessian":[6.989E3,6.551E3,4.38E2,7.6E1,6.475E3,4.31E2,7E0,2.7E1,4.9E1,5.61E3,8.65E2,3.78E2,5.3E1,5E0,2E0],"tree_param":{"num_deleted":"0","num_feature":"6","num_nodes":"15","size_leaf_vector":"1"}},{"base_weights":[-1.1131902E-2,-3.3802009E0,1.1597321E0,-2.6829798E0,-1.6467669E1,2.6325665E0,-1.6210212E0,-1.6466824E0,-2.0329864E-1,-1.3389171E0,-4.006458E0,2.2593701E-1,1.5153474E0,2.4784436E0,-1.8721564E-1],"categories":[],"categories_nodes":[],"categories_segments":[],"categories_sizes":[],"default_left":[0,0,0,0,0,0,0,0,0,0,0,0,0,0,0],"id":37,"left_children":[1,3,5,7,9,11,13,-1,-1,-1,-1,-1,-1,-1,-1],"loss_changes":[2.7577523E4,1.6407938E4,2.1252182E4,1.5313987E4,6.074082E3,1.5815744E4,1.1962916E4,0E0,0E0,0E0,0E0,0E0,0E0,0E0,0E0],"parents":[2147483647,0,0,1,1,2,2,3,3,4,4,5,5,6,6],"right_children":[2,4,6,8,10,12,14,-1,-1,-1,-1,-1,-1,-1,-1],"split_conditions":[2.1663662E1,2.771751E2,1.396569E2,6.626638E0,2.9822913E2,3.9641796E1,2.2021221E1,-1.6466824E0,-2.0329864E-1,-1.3389171E0,-4.006458E0,2.2593701E-1,1.5153474E0,2.4784436E0,-1.8721564E-1],"split_indices":[0,1,1,0,1,0,0,0,0,0,0,0,0,0,0],"split_type":[0,0,0,0,0,0,0,0,0,0,0,0,0,0,0],"sum_hessian":[6.989E3,1.802E3,5.187E3,1.712E3,9E1,3.391E3,1.796E3,7.6E1,1.636E3,8.1E1,9E0,3.294E3,9.7E1,1.6E1,1.78E3],"tree_param":{"num_deleted":"0","num_feature":"6","num_nodes":"15","size_leaf_vector":"1"}},{"base_weights":[-1.0473299E-2,1.7032494E-1,-2.089551E1,1.0379543E0,-3.5082114E0,3.2913911E0,-2.2365396E1,-3.594955E-1,1.7692521E-1,-5.200601E-1,3.0200288E-1,-4.371878E0,-1.8158616E0],"categories":[],"categories_nodes":[],"categories_segments":[],"categories_sizes":[],"default_left":[0,0,0,0,0,0,0,0,0,0,0,0,0],"id":38,"left_children":[1,3,5,7,9,-1,11,-1,-1,-1,-1,-1,-1],"loss_changes":[2.6397643E4,2.2124666E4,5.481758E3,1.9009855E4,1.4632638E4,0E0,4.506039E3,0E0,0E0,0E0,0E0,0E0,0E0],"parents":[2147483647,0,0,1,1,2,2,3,3,4,4,6,6],"right_children":[2,4,6,8,10,-1,12,-1,-1,-1,-1,-1,-1],"split_conditions":[1E0,2.1273941E2,4.3191414E0,1.5724441E1,3.2818928E1,3.2913911E0,2.4397418E0,-3.594955E-1,1.7692521E-1,-5.200601E-1,3.0200288E-1,-4.371878E0,-1.8158616E0],"split_indices":[2,1,0,0,0,0,1,0,0,0,0,0,0],"split_type":[0,0,0,0,0,0,0,0,0,0,0,0,0],"sum_hessian":[6.989E3,6.93E3,5.9E1,5.608E3,1.322E3,1E0,5.8E1,7.64E2,4.844E3,1.05E3,2.72E2,8E0,5E1],"tree_param":{"num_deleted":"0","num_feature":"6","num_nodes":"13","size_leaf_vector":"1"}},{"base_weights":[-9.903638E-3,1.5322863E-1,-1.8854233E1,2.0412328E0,-1.3635014E0,3.126822E0,-2.0233736E1,-3.6421385E-2,3.730816E-1,-2.0561695E-1,4.2284343E-1,-3.5213258E0,-1.4790925E0],"categories":[],"categories_nodes":[],"categories_segments":[],"categories_sizes":[],"default_left":[0,0,0,0,0,0,0,0,0,0,0,0,0],"id":39,"left_children":[1,3,5,7,9,-1,11,-1,-1,-1,-1,-1,-1],"loss_changes":[2.1490975E4,1.9850346E4,4.7813164E3,1.2551614E4,1.4897871E4,0E0,4.2894746E3,0E0,0E0,0E0,0E0,0E0,0E0],"parents":[2147483647,0,0,1,1,2,2,3,3,4,4,6,6],"right_children":[2,4,6,8,10,-1,12,-1,-1,-1,-1,-1,-1],"split_conditions":[1E0,9.722162E0,4.3191414E0,4.099343E0,3.513994E1,3.126822E0,2.0118343E1,-3.6421385E-2,3.730816E-1,-2.0561695E-1,4.2284343E-1,-3.5213258E0,-1.4790925E0],"split_indices":[2,1,0,1,0,0,0,0,0,0,0,0,0],"split_type":[0,0,0,0,0,0,0,0,0,0,0,0,0],"sum_hessian":[6.989E3,6.93E3,5.9E1,3.087E3,3.843E3,1E0,5.8E1,1.274E3,1.813E3,3.42E3,4.23E2,1.4E1,4.4E1],"tree_param":{"num_deleted":"0","num_feature":"6","num_nodes":"13","size_leaf_vector":"1"}},{"base_weights":[-9.101208E-3,-1.438591E0,1.9467654E0,-1.2297142E0,-3.4926662E1,1.2185003E1,9.283156E-1,-1.04315214E-1,-2.304325E0,-2.3794441E0,-6.621296E0,2.1671772E0,2.3184466E-1,-7.1684927E-1,2.1127342E-1],"categories":[],"categories_nodes":[],"categories_segments":[],"categories_sizes":[],"default_left":[0,0,0,0,0,0,0,0,0,0,0,0,0,0,0],"id":40,"left_children":[1,3,5,7,9,11,13,-1,-1,-1,-1,-1,-1,-1,-1],"loss_changes":[1.9546082E4,2.8209379E4,3.076958E4,1.6315314E4,7.1316504E3,2.4941422E4,2.577391E4,0E0,0E0,0E0,0E0,0E0,0E0,0E0,0E0],"parents":[2147483647,0,0,1,1,2,2,3,3,4,4,5,5,6,6],"right_children":[2,4,6,8,10,12,14,-1,-1,-1,-1,-1,-1,-1,-1],"split_conditions":[2.9265043E1,2.9218214E1,2.0318947E0,1E0,2.5197066E2,3.3065968E1,4.5247245E0,-1.04315214E-1,-2.304325E0,-2.3794441E0,-6.621296E0,2.1671772E0,2.3184466E-1,-7.1684927E-1,2.1127342E-1],"split_indices":[0,0,1,2,1,0,1,0,0,0,0,0,0,0,0],"split_type":[0,0,0,0,0,0,0,0,0,0,0,0,0,0,0],"sum_hessian":[6.989E3,4.038E3,2.951E3,4.014E3,2.4E1,2.66E2,2.685E3,3.981E3,3.3E1,1.9E1,5E0,1.35E2,1.31E2,3.42E2,2.343E3],"tree_param":{"num_deleted":"0","num_feature":"6","num_nodes":"15","size_leaf_vector":"1"}},{"base_weights":[-9.561207E-3,-2.4258746E-1,1.1477529E1,1.9884828E-1,-6.803273E0,4.0363403E1,4.1535816E0,1.7923142E0,4.8516835E-3,-5.214817E-1,-1.7825896E0,1.4539762E0,5.18304E0,-2.8087244E0,5.92266E-1],"categories":[],"categories_nodes":[],"categories_segments":[],"categories_sizes":[],"default_left":[0,0,0,0,0,0,0,0,0,0,0,0,0,0,0],"id":41,"left_children":[1,3,5,7,9,11,13,-1,-1,-1,-1,-1,-1,-1,-1],"loss_changes":[1.871357E4,1.9845576E4,2.9238994E4,1.7108004E4,7.47091E3,7.53775E3,6.5544443E3,0E0,0E0,0E0,0E0,0E0,0E0,0E0,0E0],"parents":[2147483647,0,0,1,1,2,2,3,3,4,4,5,5,6,6],"right_children":[2,4,6,8,10,12,14,-1,-1,-1,-1,-1,-1,-1,-1],"split_conditions":[3.9641796E1,2.7263275E2,4.013862E1,2.1109572E-1,3.477445E1,6E0,8.9567524E-1,1.7923142E0,4.8516835E-3,-5.214817E-1,-1.7825896E0,1.4539762E0,5.18304E0,-2.8087244E0,5.92266E-1],"split_indices":[0,1,0,1,0,4,1,0,0,0,0,0,0,0,0],"split_type":[0,0,0,0,0,0,0,0,0,0,0,0,0,0,0],"sum_hessian":[6.989E3,6.851E3,1.38E2,6.42E3,4.31E2,2.7E1,1.11E2,5.3E1,6.367E3,3.78E2,5.3E1,9E0,1.8E1,5E0,1.06E2],"tree_param":{"num_deleted":"0","num_feature":"6","num_nodes":"15","size_leaf_vector":"1"}},{"base_weights":[-8.029479E-3,-6.7227135E0,3.8223034E-1,-2.8471098E0,-1.1849442E1,2.0210052E0,-9.475821E-1,-9.44945E-1,1.6657056E0,-9.5773107E-1,-4.278861E0,-1.4382002E-2,3.5453144E-1,-5.678025E-2,-8.2190096E-1],"categories":[],"categories_nodes":[],"categories_segments":[],"categories_sizes":[],"default_left":[0,0,0,0,0,0,0,0,0,0,0,0,0,0,0],"id":42,"left_children":[1,3,5,7,9,11,13,-1,-1,-1,-1,-1,-1,-1,-1],"loss_changes":[1.8319664E4,7.5960234E3,1.4400307E4,2.8487488E4,1.118934E4,9.768105E3,1.0069432E4,0E0,0E0,0E0,0E0,0E0,0E0,0E0,0E0],"parents":[2147483647,0,0,1,1,2,2,3,3,4,4,5,5,6,6],"right_children":[2,4,6,8,10,12,14,-1,-1,-1,-1,-1,-1,-1,-1],"split_conditions":[1.1097147E1,9.316777E0,9.722162E0,8.218462E0,2.7394086E2,4.099343E0,2.8804922E2,-9.44945E-1,1.6657056E0,-9.5773107E-1,-4.278861E0,-1.4382002E-2,3.5453144E-1,-5.678025E-2,-8.2190096E-1],"split_indices":[0,0,1,0,1,1,1,0,0,0,0,0,0,0,0],"split_type":[0,0,0,0,0,0,0,0,0,0,0,0,0,0,0],"sum_hessian":[6.989E3,3.83E2,6.606E3,2.19E2,1.64E2,2.959E3,3.647E3,1.64E2,5.5E1,1.54E2,1E1,1.223E3,1.736E3,3.467E3,1.8E2],"tree_param":{"num_deleted":"0","num_feature":"6","num_nodes":"15","size_leaf_vector":"1"}},{"base_weights":[-7.948203E-3,-2.5247386E0,8.667204E-1,-8.339883E0,-1.4274684E0,1.8663904E1,7.1783864E-1,-5.634088E-1,-2.639688E0,4.7584853E-1,-3.9005342E-1,3.0870097E0,-1.965139E0,4.3847572E-2,1.0928717E0],"categories":[],"categories_nodes":[],"categories_segments":[],"categories_sizes":[],"default_left":[0,0,0,0,0,0,0,0,0,0,0,0,0,0,0],"id":43,"left_children":[1,3,5,7,9,11,13,-1,-1,-1,-1,-1,-1,-1,-1],"loss_changes":[1.5389678E4,1.1492648E4,1.3733123E4,1.3824814E4,2.3241336E4,2.0717045E4,1.4674382E4,0E0,0E0,0E0,0E0,0E0,0E0,0E0,0E0],"parents":[2147483647,0,0,1,1,2,2,3,3,4,4,5,5,6,6],"right_children":[2,4,6,8,10,12,14,-1,-1,-1,-1,-1,-1,-1,-1],"split_conditions":[2.1663662E1,3.8045244E0,2.1109572E-1,3.2695775E0,9.217101E0,3.477445E1,3.9641796E1,-5.634088E-1,-2.639688E0,4.7584853E-1,-3.9005342E-1,3.0870097E0,-1.965139E0,4.3847572E-2,1.0928717E0],"split_indices":[0,1,1,1,1,0,0,0,0,0,0,0,0,0,0],"split_type":[0,0,0,0,0,0,0,0,0,0,0,0,0,0,0],"sum_hessian":[6.989E3,1.802E3,5.187E3,2.85E2,1.517E3,4.2E1,5.145E3,2.49E2,3.6E1,4.33E2,1.084E3,3.2E1,1E1,5.009E3,1.36E2],"tree_param":{"num_deleted":"0","num_feature":"6","num_nodes":"15","size_leaf_vector":"1"}},{"base_weights":[-7.267796E-3,1.2847301E-1,-1.5687473E1,-1.3732262E1,2.92331E-1,3.160872E0,-1.7024845E1,-2.0185971E0,-1.4640272E-1,8.661552E-2,-2.7215597E-1,-3.7339158E0,-1.3106145E0],"categories":[],"categories_nodes":[],"categories_segments":[],"categories_sizes":[],"default_left":[0,0,0,0,0,0,0,0,0,0,0,0,0],"id":44,"left_children":[1,3,5,7,9,-1,11,-1,-1,-1,-1,-1,-1],"loss_changes":[1.4879839E4,1.57456455E4,4.333288E3,6.383673E3,1.1850771E4,0E0,4.2073633E3,0E0,0E0,0E0,0E0,0E0,0E0],"parents":[2147483647,0,0,1,1,2,2,3,3,4,4,6,6],"right_children":[2,4,6,8,10,-1,12,-1,-1,-1,-1,-1,-1],"split_conditions":[1E0,6.626638E0,4.3191414E0,1E0,2.2795312E2,3.160872E0,2.4397418E0,-2.0185971E0,-1.4640272E-1,8.661552E-2,-2.7215597E-1,-3.7339158E0,-1.3106145E0],"split_indices":[2,0,0,5,1,0,1,0,0,0,0,0,0],"split_type":[0,0,0,0,0,0,0,0,0,0,0,0,0],"sum_hessian":[6.989E3,6.93E3,5.9E1,8E1,6.85E3,1E0,5.8E1,5.2E1,2.8E1,5.755E3,1.095E3,8E0,5E1],"tree_param":{"num_deleted":"0","num_feature":"6","num_nodes":"13","size_leaf_vector":"1"}},{"base_weights":[-7.141347E-3,-1.1627377E0,1.5739769E0,-9.716155E-1,-3.1810453E1,1.0517393E1,6.843766E-1,-8.162601E-2,-1.9137897E0,-6.2266417E0,-2.1083143E0,8.25026E-1,4.8055234E0,-6.719E-1,1.7674285E-1],"categories":[],"categories_nodes":[],"categories_segments":[],"categories_sizes":[],"default_left":[0,0,0,0,0,0,0,0,0,0,0,0,0,0,0],"id":45,"left_children":[1,3,5,7,9,11,13,-1,-1,-1,-1,-1,-1,-1,-1],"loss_changes":[1.27735E4,2.362737E4,2.3479105E4,1.1315632E4,6.854992E3,2.2326121E4,2.1548873E4,0E0,0E0,0E0,0E0,0E0,0E0,0E0,0E0],"parents":[2147483647,0,0,1,1,2,2,3,3,4,4,5,5,6,6],"right_children":[2,4,6,8,10,12,14,-1,-1,-1,-1,-1,-1,-1,-1],"split_conditions":[2.9265043E1,2.9218214E1,2.0318947E0,1E0,3.4205086E0,1.926356E0,4.5247245E0,-8.162601E-2,-1.9137897E0,-6.2266417E0,-2.1083143E0,8.25026E-1,4.8055234E0,-6.719E-1,1.7674285E-1],"split_indices":[0,0,1,2,1,1,1,0,0,0,0,0,0,0,0],"split_type":[0,0,0,0,0,0,0,0,0,0,0,0,0,0,0],"sum_hessian":[6.989E3,4.038E3,2.951E3,4.014E3,2.4E1,2.66E2,2.685E3,3.981E3,3.3E1,5E0,1.9E1,2.52E2,1.4E1,3.42E2,2.343E3],"tree_param":{"num_deleted":"0","num_feature":"6","num_nodes":"15","size_leaf_vector":"1"}},{"base_weights":[-7.1801334E-3,-5.224196E0,3.1868622E-1,-4.196324E0,-2.1623789E1,1.2234088E1,1.6643985E-1,-5.02016E-1,2.2035549E0,-4.490939E-2,-3.6716497E0,5.5050635E0,5.6146896E-1,7.365323E-2,-2.8502995E-1],"categories":[],"categories_nodes":[],"categories_segments":[],"categories_sizes":[],"default_left":[0,0,0,0,0,0,0,0,0,0,0,0,0,0,0],"id":46,"left_children":[1,3,5,7,9,11,13,-1,-1,-1,-1,-1,-1,-1,-1],"loss_changes":[1.1885014E4,6.8373574E3,1.193459E4,8.495596E3,7.6535127E3,2.321475E4,1.117749E4,0E0,0E0,0E0,0E0,0E0,0E0,0E0,0E0],"parents":[2147483647,0,0,1,1,2,2,3,3,4,4,5,5,6,6],"right_children":[2,4,6,8,10,12,14,-1,-1,-1,-1,-1,-1,-1,-1],"split_conditions":[1.1392739E1,2.754479E2,1.2187607E1,2.647255E2,8.829713E0,3.4205086E0,2.2795312E2,-5.02016E-1,2.2035549E0,-4.490939E-2,-3.6716497E0,5.5050635E0,5.6146896E-1,7.365323E-2,-2.8502995E-1],"split_indices":[0,1,0,1,0,1,1,0,0,0,0,0,0,0,0],"split_type":[0,0,0,0,0,0,0,0,0,0,0,0,0,0,0],"sum_hessian":[6.989E3,4.1E2,6.579E3,3.87E2,2.3E1,8.2E1,6.497E3,3.76E2,1.1E1,1E1,1.3E1,1E1,7.2E1,5.465E3,1.032E3],"tree_param":{"num_deleted":"0","num_feature":"6","num_nodes":"15","size_leaf_vector":"1"}},{"base_weights":[-5.9168586E-3,-1.8828501E-1,8.983957E0,1.430609E1,-3.0337664E-1,3.4901802E1,2.4242826E0,-2.6590908E0,1.9972193E0,-1.8848918E-2,-1.3204012E0,7.9634094E-1,4.350206E0,-1.7967731E-1,1.515162E0],"categories":[],"categories_nodes":[],"categories_segments":[],"categories_sizes":[],"default_left":[0,0,0,0,0,0,0,0,0,0,0,0,0,0,0],"id":47,"left_children":[1,3,5,7,9,11,13,-1,-1,-1,-1,-1,-1,-1,-1],"loss_changes":[1.1461564E4,1.1434718E4,2.3547145E4,1.3044313E4,1.0074454E4,6.1405312E3,6.0441777E3,0E0,0E0,0E0,0E0,0E0,0E0,0E0,0E0],"parents":[2147483647,0,0,1,1,2,2,3,3,4,4,5,5,6,6],"right_children":[2,4,6,8,10,12,14,-1,-1,-1,-1,-1,-1,-1,-1],"split_conditions":[3.9641796E1,2.1109572E-1,4.013862E1,3E0,1E0,2.0318947E0,1E0,-2.6590908E0,1.9972193E0,-1.8848918E-2,-1.3204012E0,7.9634094E-1,4.350206E0,-1.7967731E-1,1.515162E0],"split_indices":[0,1,0,4,2,1,5,0,0,0,0,0,0,0,0],"split_type":[0,0,0,0,0,0,0,0,0,0,0,0,0,0,0],"sum_hessian":[6.989E3,6.851E3,1.38E2,5.3E1,6.798E3,2.7E1,1.11E2,6E0,4.7E1,6.739E3,5.9E1,7E0,2E1,8.4E1,2.7E1],"tree_param":{"num_deleted":"0","num_feature":"6","num_nodes":"15","size_leaf_vector":"1"}},{"base_weights":[-4.673191E-3,-1.1077449E1,1.283675E-1,-1.6317884E1,-7.567118E-1,2.3930243E-1,-1.2977557E1,1.7457865E0,-1.7921835E0,-4.140407E-1,4.699338E0,-1.2033449E-2,3.9863202E-1,-3.3541062E0,-9.497448E-1],"categories":[],"categories_nodes":[],"categories_segments":[],"categories_sizes":[],"default_left":[0,0,0,0,0,0,0,0,0,0,0,0,0,0,0],"id":48,"left_children":[1,3,5,7,9,11,13,-1,-1,-1,-1,-1,-1,-1,-1],"loss_changes":[1.0298598E4,4.4767197E3,1.0046682E4,3.2924824E3,4.880152E3,9.232654E3,3.8321133E3,0E0,0E0,0E0,0E0,0E0,0E0,0E0,0E0],"parents":[2147483647,0,0,1,1,2,2,3,3,4,4,5,5,6,6],"right_children":[2,4,6,8,10,12,14,-1,-1,-1,-1,-1,-1,-1,-1],"split_conditions":[6.626638E0,1E0,1E0,6.539026E-1,2.5343027E2,3.6137177E1,2.4397418E0,1.7457865E0,-1.7921835E0,-4.140407E-1,4.699338E0,-1.2033449E-2,3.9863202E-1,-3.3541062E0,-9.497448E-1],"split_indices":[0,5,2,1,1,0,1,0,0,0,0,0,0,0,0],"split_type":[0,0,0,0,0,0,0,0,0,0,0,0,0,0,0],"sum_hessian":[6.989E3,8.2E1,6.907E3,5.4E1,2.8E1,6.85E3,5.7E1,2E0,5.2E1,2.7E1,1E0,6.251E3,5.99E2,7E0,5E1],"tree_param":{"num_deleted":"0","num_feature":"6","num_nodes":"15","size_leaf_vector":"1"}},{"base_weights":[-4.167485E-3,1.9518405E-1,-6.9886427E0,1.0247371E-1,2.2604246E1,-2.0583405E0,-1.2663011E1,-1.0856575E0,2.301748E-2,1.2503958E0,8.007999E0,2.2356537E-1,-2.1611981E0,-2.6740167E0,-9.257947E-1],"categories":[],"categories_nodes":[],"categories_segments":[],"categories_sizes":[],"default_left":[0,0,0,0,0,0,0,0,0,0,0,0,0,0,0],"id":49,"left_children":[1,3,5,7,9,11,13,-1,-1,-1,-1,-1,-1,-1,-1],"loss_changes":[9.734002E3,1.4118802E4,5.4013467E3,9.476994E3,1.525329E4,8.864455E3,4.0664658E3,0E0,0E0,0E0,0E0,0E0,0E0,0E0,0E0],"parents":[2147483647,0,0,1,1,2,2,3,3,4,4,5,5,6,6],"right_children":[2,4,6,8,10,12,14,-1,-1,-1,-1,-1,-1,-1,-1],"split_conditions":[2.8804922E2,2.8568015E2,7E0,6.626638E0,1.2E1,3.3559628E1,2.0660849E1,-1.0856575E0,2.301748E-2,1.2503958E0,8.007999E0,2.2356537E-1,-2.1611981E0,-2.6740167E0,-9.257947E-1],"split_indices":[1,1,4,0,4,0,0,0,0,0,0,0,0,0,0],"split_type":[0,0,0,0,0,0,0,0,0,0,0,0,0,0,0],"sum_hessian":[6.989E3,6.796E3,1.93E2,6.769E3,2.7E1,1.04E2,8.9E1,7.7E1,6.692E3,2.4E1,3E0,8.6E1,1.8E1,1.6E1,7.3E1],"tree_param":{"num_deleted":"0","num_feature":"6","num_nodes":"15","size_leaf_vector":"1"}},{"base_weights":[-3.363873E-3,1.2461839E0,-1.055683E0,1.0494459E0,2.1298647E1,-1.51074E0,3.4276938E0,1.2226279E-1,-2.0758042E0,2.8218765E0,-5.2695384E0,-6.551016E-1,-1.22279085E-1,2.7177958E0,2.2085857E-1],"categories":[],"categories_nodes":[],"categories_segments":[],"categories_sizes":[],"default_left":[0,0,0,0,0,0,0,0,0,0,0,0,0,0,0],"id":50,"left_children":[1,3,5,7,9,11,13,-1,-1,-1,-1,-1,-1,-1,-1],"loss_changes":[9.192628E3,1.2586128E4,7.7477065E3,1.1982297E4,1.7360473E4,4.993318E3,1.0073924E4,0E0,0E0,0E0,0E0,0E0,0E0,0E0,0E0],"parents":[2147483647,0,0,1,1,2,2,3,3,4,4,5,5,6,6],"right_children":[2,4,6,8,10,12,14,-1,-1,-1,-1,-1,-1,-1,-1],"split_conditions":[5.0266975E1,9.884792E0,3.573388E1,9.808262E0,3.5507088E1,1.0624193E1,3.5870758E1,1.2226279E-1,-2.0758042E0,2.8218765E0,-5.2695384E0,-6.551016E-1,-1.22279085E-1,2.7177958E0,2.2085857E-1],"split_indices":[1,1,0,1,0,0,0,0,0,0,0,0,0,0,0],"split_type":[0,0,0,0,0,0,0,0,0,0,0,0,0,0,0],"sum_hessian":[6.989E3,3.195E3,3.794E3,3.165E3,3E1,3.445E3,3.49E2,3.141E3,2.4E1,2.8E1,2E0,1.85E2,3.26E3,1.6E1,3.33E2],"tree_param":{"num_deleted":"0","num_feature":"6","num_nodes":"15","size_leaf_vector":"1"}},{"base_weights":[-3.3446501E-3,6.5272994E0,-1.8875374E-1,1.0370698E0,1.9940235E1,-2.1039248E1,-1.02503166E-1,-4.4089547E-1,1.4974643E0,2.5156305E0,-6.5693116E-1,-4.1210628E0,-3.3350524E-1,-2.7478477E-2,7.06354E-1],"categories":[],"categories_nodes":[],"categories_segments":[],"categories_sizes":[],"default_left":[0,0,0,0,0,0,0,0,0,0,0,0,0,0,0],"id":51,"left_children":[1,3,5,7,9,11,13,-1,-1,-1,-1,-1,-1,-1,-1],"loss_changes":[8.465009E3,1.4191858E4,1.2223142E4,1.0540824E4,7.9086934E3,9.861864E3,8.361265E3,0E0,0E0,0E0,0E0,0E0,0E0,0E0,0E0],"parents":[2147483647,0,0,1,1,2,2,3,3,4,4,5,5,6,6],"right_children":[2,4,6,8,10,12,14,-1,-1,-1,-1,-1,-1,-1,-1],"split_conditions":[6.539026E-1,1E1,7.4941206E-1,1E0,3.477445E1,2.7002794E1,3.917573E1,-4.4089547E-1,1.4974643E0,2.5156305E0,-6.5693116E-1,-4.1210628E0,-3.3350524E-1,-2.7478477E-2,7.06354E-1],"split_indices":[1,4,1,5,0,0,0,0,0,0,0,0,0,0,0],"split_type":[0,0,0,0,0,0,0,0,0,0,0,0,0,0,0],"sum_hessian":[6.989E3,1.92E2,6.797E3,1.37E2,5.5E1,2.7E1,6.77E3,9.9E1,3.8E1,4.6E1,9E0,1.2E1,1.5E1,6.612E3,1.58E2],"tree_param":{"num_deleted":"0","num_feature":"6","num_nodes":"15","size_leaf_vector":"1"}},{"base_weights":[-3.144963E-3,-1.8450415E0,6.3697505E-1,-7.626905E0,-7.544895E-1,1.4527908E1,4.825674E-1,-5.209412E-1,-2.3755186E0,4.4639897E-1,-2.841186E-1,1.9888047E0,-2.0788944E0,2.9107198E-1,-3.3516277E-2],"categories":[],"categories_nodes":[],"categories_segments":[],"categories_sizes":[],"default_left":[0,0,0,0,0,0,0,0,0,0,0,0,0,0,0],"id":52,"left_children":[1,3,5,7,9,11,13,-1,-1,-1,-1,-1,-1,-1,-1],"loss_changes":[8.242629E3,1.1362923E4,1.1120558E4,1.1027393E4,1.6542764E4,1.1203733E4,1.0190938E4,0E0,0E0,0E0,0E0,0E0,0E0,0E0,0E0],"parents":[2147483647,0,0,1,1,2,2,3,3,4,4,5,5,6,6],"right_children":[2,4,6,8,10,12,14,-1,-1,-1,-1,-1,-1,-1,-1],"split_conditions":[2.1663662E1,3.8045244E0,2.2021221E1,3.2695775E0,9.217101E0,1.1E1,5.4391427E0,-5.209412E-1,-2.3755186E0,4.4639897E-1,-2.841186E-1,1.9888047E0,-2.0788944E0,2.9107198E-1,-3.3516277E-2],"split_indices":[0,1,0,1,1,4,1,0,0,0,0,0,0,0,0],"split_type":[0,0,0,0,0,0,0,0,0,0,0,0,0,0,0],"sum_hessian":[6.989E3,1.802E3,5.187E3,2.85E2,1.517E3,5.6E1,5.131E3,2.49E2,3.6E1,4.33E2,1.084E3,4.9E1,7E0,1.292E3,3.839E3],"tree_param":{"num_deleted":"0","num_feature":"6","num_nodes":"15","size_leaf_vector":"1"}},{"base_weights":[-3.2040859E-3,2.6711175E-1,-4.037615E0,1.2848596E-1,1.10700245E1,-4.4823966E0,2.0485325E1,-2.7500609E-2,3.038279E-1,-1.7879954E-2,1.7440656E0,-2.9381937E-1,-1.5237409E0,3.912108E0,1.479657E-1],"categories":[],"categories_nodes":[],"categories_segments":[],"categories_sizes":[],"default_left":[0,0,0,0,0,0,0,0,0,0,0,0,0,0,0],"id":53,"left_children":[1,3,5,7,9,11,13,-1,-1,-1,-1,-1,-1,-1,-1],"loss_changes":[7.6241284E3,9.810605E3,4.880157E3,7.5971226E3,5.951076E3,7.1298525E3,2.7755935E3,0E0,0E0,0E0,0E0,0E0,0E0,0E0,0E0],"parents":[2147483647,0,0,1,1,2,2,3,3,4,4,5,5,6,6],"right_children":[2,4,6,8,10,12,14,-1,-1,-1,-1,-1,-1,-1,-1],"split_conditions":[2.7263275E2,2.6802808E2,3.9641796E1,3.4982323E1,2.6405943E1,3.477445E1,6E0,-2.7500609E-2,3.038279E-1,-1.7879954E-2,1.7440656E0,-2.9381937E-1,-1.5237409E0,3.912108E0,1.479657E-1],"split_indices":[1,1,0,0,0,0,4,0,0,0,0,0,0,0,0],"split_type":[0,0,0,0,0,0,0,0,0,0,0,0,0,0,0],"sum_hessian":[6.989E3,6.551E3,4.38E2,6.469E3,8.2E1,4.31E2,7E0,5.682E3,7.87E2,3E1,5.2E1,3.78E2,5.3E1,3E0,4E0],"tree_param":{"num_deleted":"0","num_feature":"6","num_nodes":"15","size_leaf_vector":"1"}},{"base_weights":[-2.265974E-3,-8.373568E-1,1.1403269E0,-6.623333E-1,-2.891263E1,8.55264E0,4.0308636E-1,-5.4441918E-2,-1.4452682E0,-1.8725233E0,-5.805185E0,1.7159884E0,-3.8022105E-2,-6.7227525E-1,1.4456458E-1],"categories":[],"categories_nodes":[],"categories_segments":[],"categories_sizes":[],"default_left":[0,0,0,0,0,0,0,0,0,0,0,0,0,0,0],"id":54,"left_children":[1,3,5,7,9,11,13,-1,-1,-1,-1,-1,-1,-1,-1],"loss_changes":[6.6705947E3,1.9827816E4,1.6128223E4,6.5208315E3,6.334285E3,2.0535436E4,1.9964309E4,0E0,0E0,0E0,0E0,0E0,0E0,0E0,0E0],"parents":[2147483647,0,0,1,1,2,2,3,3,4,4,5,5,6,6],"right_children":[2,4,6,8,10,12,14,-1,-1,-1,-1,-1,-1,-1,-1],"split_conditions":[2.9265043E1,2.9218214E1,2.0318947E0,1E0,2.5197066E2,3.3065968E1,4.5247245E0,-5.4441918E-2,-1.4452682E0,-1.8725233E0,-5.805185E0,1.7159884E0,-3.8022105E-2,-6.7227525E-1,1.4456458E-1],"split_indices":[0,0,1,2,1,0,1,0,0,0,0,0,0,0,0],"split_type":[0,0,0,0,0,0,0,0,0,0,0,0,0,0,0],"sum_hessian":[6.989E3,4.038E3,2.951E3,4.014E3,2.4E1,2.66E2,2.685E3,3.981E3,3.3E1,1.9E1,5E0,1.35E2,1.31E2,3.42E2,2.343E3],"tree_param":{"num_deleted":"0","num_feature":"6","num_nodes":"15","size_leaf_vector":"1"}},{"base_weights":[-3.1902243E-3,1.590754E-1,-5.6883254E0,3.199103E-2,1.5736726E1,-1.2745672E0,-1.0774506E1,1.8711103E-2,-1.8494341E0,-1.9174778E0,2.2087085E0,2.636314E-1,-1.9115204E0,-2.3330617E0,-7.744393E-1],"categories":[],"categories_nodes":[],"categories_segments":[],"categories_sizes":[],"default_left":[0,0,0,0,0,0,0,0,0,0,0,0,0,0,0],"id":55,"left_children":[1,3,5,7,9,11,13,-1,-1,-1,-1,-1,-1,-1,-1],"loss_changes":[6.4491934E3,1.3455353E4,4.3414062E3,1.9381527E4,1.2617043E4,7.3765176E3,3.243498E3,0E0,0E0,0E0,0E0,0E0,0E0,0E0,0E0],"parents":[2147483647,0,0,1,1,2,2,3,3,4,4,5,5,6,6],"right_children":[2,4,6,8,10,12,14,-1,-1,-1,-1,-1,-1,-1,-1],"split_conditions":[2.8804922E2,2.845408E2,7E0,2.8100763E2,3E0,3.3559628E1,2.0660849E1,1.8711103E-2,-1.8494341E0,-1.9174778E0,2.2087085E0,2.636314E-1,-1.9115204E0,-2.3330617E0,-7.744393E-1],"split_indices":[1,1,4,1,4,0,0,0,0,0,0,0,0,0,0],"split_type":[0,0,0,0,0,0,0,0,0,0,0,0,0,0,0],"sum_hessian":[6.989E3,6.796E3,1.93E2,6.742E3,5.4E1,1.04E2,8.9E1,6.687E3,5.5E1,8E0,4.6E1,8.6E1,1.8E1,1.6E1,7.3E1],"tree_param":{"num_deleted":"0","num_feature":"6","num_nodes":"15","size_leaf_vector":"1"}},{"base_weights":[-3.784994E-3,-8.46397E0,9.786515E-2,7.703016E-1,-1.317906E1,1.9031146E-1,-1.0823645E1,1.6380652E0,-9.679393E-1,-2.7481883E0,-4.866963E-1,5.962413E-3,6.5004826E-1,-4.1183295E0,-8.4188765E-1],"categories":[],"categories_nodes":[],"categories_segments":[],"categories_sizes":[],"default_left":[0,0,0,0,0,0,0,0,0,0,0,0,0,0,0],"id":56,"left_children":[1,3,5,7,9,11,13,-1,-1,-1,-1,-1,-1,-1,-1],"loss_changes":[6.012082E3,3.6240073E3,6.976745E3,4.8891323E3,6.405001E3,5.649354E3,3.8877422E3,0E0,0E0,0E0,0E0,0E0,0E0,0E0,0E0],"parents":[2147483647,0,0,1,1,2,2,3,3,4,4,5,5,6,6],"right_children":[2,4,6,8,10,12,14,-1,-1,-1,-1,-1,-1,-1,-1],"split_conditions":[6.626638E0,4.3191414E0,1E0,2E0,2E0,3.9641796E1,1.0624193E1,1.6380652E0,-9.679393E-1,-2.7481883E0,-4.866963E-1,5.962413E-3,6.5004826E-1,-4.1183295E0,-8.4188765E-1],"split_indices":[0,0,2,4,4,0,0,0,0,0,0,0,0,0,0],"split_type":[0,0,0,0,0,0,0,0,0,0,0,0,0,0,0],"sum_hessian":[6.989E3,8.2E1,6.907E3,2.8E1,5.4E1,6.85E3,5.7E1,1.1E1,1.7E1,1.9E1,3.5E1,6.712E3,1.38E2,3E0,5.4E1],"tree_param":{"num_deleted":"0","num_feature":"6","num_nodes":"15","size_leaf_vector":"1"}},{"base_weights":[-4.3940097E-3,5.3809385E0,-1.5728673E-1,3.380941E-1,1.7711859E1,-1.9448324E1,-7.748961E-2,-4.4989833E-1,1.2732189E0,2.555246E0,1.0984577E-1,-4.034199E0,-3.5558364E-1,-8.477306E-1,2.4208573E-3],"categories":[],"categories_nodes":[],"categories_segments":[],"categories_sizes":[],"default_left":[0,0,0,0,0,0,0,0,0,0,0,0,0,0,0],"id":57,"left_children":[1,3,5,7,9,11,13,-1,-1,-1,-1,-1,-1,-1,-1],"loss_changes":[5.7562603E3,1.1995314E4,1.0463127E4,8.330546E3,7.2664375E3,9.154014E3,5.784305E3,0E0,0E0,0E0,0E0,0E0,0E0,0E0,0E0],"parents":[2147483647,0,0,1,1,2,2,3,3,4,4,5,5,6,6],"right_children":[2,4,6,8,10,12,14,-1,-1,-1,-1,-1,-1,-1,-1],"split_conditions":[6.539026E-1,1E1,7.4941206E-1,1E0,1.2E1,5E0,6.626638E0,-4.4989833E-1,1.2732189E0,2.555246E0,1.0984577E-1,-4.034199E0,-3.5558364E-1,-8.477306E-1,2.4208573E-3],"split_indices":[1,4,1,5,4,4,0,0,0,0,0,0,0,0,0],"split_type":[0,0,0,0,0,0,0,0,0,0,0,0,0,0,0],"sum_hessian":[6.989E3,1.92E2,6.797E3,1.37E2,5.5E1,2.7E1,6.77E3,9.9E1,3.8E1,3.7E1,1.8E1,1.1E1,1.6E1,8E1,6.69E3],"tree_param":{"num_deleted":"0","num_feature":"6","num_nodes":"15","size_leaf_vector":"1"}},{"base_weights":[-4.210786E-3,9.6551937E-1,-8.208783E-1,7.8632826E-1,1.9234993E1,-1.1696261E0,2.6151376E0,9.4066374E-2,-1.864201E0,2.567797E0,-4.945877E0,-8.41293E-2,-4.4304815E-1,-2.006255E0,3.8331053E-1],"categories":[],"categories_nodes":[],"categories_segments":[],"categories_sizes":[],"default_left":[0,0,0,0,0,0,0,0,0,0,0,0,0,0,0],"id":58,"left_children":[1,3,5,7,9,11,13,-1,-1,-1,-1,-1,-1,-1,-1],"loss_changes":[5.5365034E3,1.0447711E4,4.550618E3,9.5107295E3,1.4990362E4,3.6857207E3,9.744143E3,0E0,0E0,0E0,0E0,0E0,0E0,0E0,0E0],"parents":[2147483647,0,0,1,1,2,2,3,3,4,4,5,5,6,6],"right_children":[2,4,6,8,10,12,14,-1,-1,-1,-1,-1,-1,-1,-1],"split_conditions":[5.0266975E1,9.884792E0,3.573388E1,9.808262E0,3.5507088E1,1.2E1,6.2017704E1,9.4066374E-2,-1.864201E0,2.567797E0,-4.945877E0,-8.41293E-2,-4.4304815E-1,-2.006255E0,3.8331053E-1],"split_indices":[1,1,0,1,0,4,1,0,0,0,0,0,0,0,0],"split_type":[0,0,0,0,0,0,0,0,0,0,0,0,0,0,0],"sum_hessian":[6.989E3,3.195E3,3.794E3,3.165E3,3E1,3.445E3,3.49E2,3.141E3,2.4E1,2.8E1,2E0,3.131E3,3.14E2,1.7E1,3.32E2],"tree_param":{"num_deleted":"0","num_feature":"6","num_nodes":"15","size_leaf_vector":"1"}},{"base_weights":[-4.6840445E-3,1.390449E-1,-5.040359E0,2.3635086E-2,1.428576E1,-3.0747583E0,-1.4895126E1,1.6332332E-2,-1.6659552E0,-1.7308791E0,2.003183E0,-5.843578E-1,4.49521E0,-1.9905628E0,2.6245806E-1],"categories":[],"categories_nodes":[],"categories_segments":[],"categories_sizes":[],"default_left":[0,0,0,0,0,0,0,0,0,0,0,0,0,0,0],"id":59,"left_children":[1,3,5,7,9,11,13,-1,-1,-1,-1,-1,-1,-1,-1],"loss_changes":[5.0598687E3,1.1096918E4,3.712086E3,1.5716912E4,1.0331671E4,2.1938049E4,2.8612837E3,0E0,0E0,0E0,0E0,0E0,0E0,0E0,0E0],"parents":[2147483647,0,0,1,1,2,2,3,3,4,4,5,5,6,6],"right_children":[2,4,6,8,10,12,14,-1,-1,-1,-1,-1,-1,-1,-1],"split_conditions":[2.8804922E2,2.845408E2,3.3559628E1,2.8100763E2,3E0,3.2439888E1,1E1,1.6332332E-2,-1.6659552E0,-1.7308791E0,2.003183E0,-5.843578E-1,4.49521E0,-1.9905628E0,2.6245806E-1],"split_indices":[1,1,0,1,4,0,4,0,0,0,0,0,0,0,0],"split_type":[0,0,0,0,0,0,0,0,0,0,0,0,0,0,0],"sum_hessian":[6.989E3,6.796E3,1.93E2,6.742E3,5.4E1,1.62E2,3.1E1,6.687E3,5.5E1,8E0,4.6E1,1.54E2,8E0,2.4E1,7E0],"tree_param":{"num_deleted":"0","num_feature":"6","num_nodes":"15","size_leaf_vector":"1"}},{"base_weights":[-4.112113E-3,-1.6368158E0,4.028975E-1,-9.100021E-1,-8.197737E0,1.0944003E1,2.4415345E-1,-1.5012015E-1,2.5093043E0,5.464165E-1,-1.339196E0,1.9343556E0,-8.2143843E-1,-1.7224394E-1,9.010525E-2],"categories":[],"categories_nodes":[],"categories_segments":[],"categories_sizes":[],"default_left":[0,0,0,0,0,0,0,0,0,0,0,0,0,0,0],"id":60,"left_children":[1,3,5,7,9,11,13,-1,-1,-1,-1,-1,-1,-1,-1],"loss_changes":[4.645697E3,6.6446924E3,9.361325E3,1.9361512E4,9.937028E3,1.3515412E4,7.124829E3,0E0,0E0,0E0,0E0,0E0,0E0,0E0,0E0],"parents":[2147483647,0,0,1,1,2,2,3,3,4,4,5,5,6,6],"right_children":[2,4,6,8,10,12,14,-1,-1,-1,-1,-1,-1,-1,-1],"split_conditions":[1.901396E1,1.805292E1,1.9619286E1,1.7794888E1,2E0,8E0,5E0,-1.5012015E-1,2.5093043E0,5.464165E-1,-1.339196E0,1.9343556E0,-8.2143843E-1,-1.7224394E-1,9.010525E-2],"split_indices":[0,0,0,0,4,4,4,0,0,0,0,0,0,0,0],"split_type":[0,0,0,0,0,0,0,0,0,0,0,0,0,0,0],"sum_hessian":[6.989E3,1.394E3,5.595E3,1.256E3,1.38E2,8.2E1,5.513E3,1.229E3,2.7E1,3.8E1,1E2,5.7E1,2.5E1,1.38E3,4.133E3],"tree_param":{"num_deleted":"0","num_feature":"6","num_nodes":"15","size_leaf_vector":"1"}},{"base_weights":[-3.325497E-3,3.9168698E-1,-1.6691555E0,2.3524615E-1,6.372829E0,-2.788663E0,2.6370723E0,1.0609226E0,1.3250919E-2,6.437199E-2,2.2337089E0,-2.2188202E-1,-3.09852E0,1.1792454E0,-2.2839718E-1],"categories":[],"categories_nodes":[],"categories_segments":[],"categories_sizes":[],"default_left":[0,0,0,0,0,0,0,0,0,0,0,0,0,0,0],"id":61,"left_children":[1,3,5,7,9,11,13,-1,-1,-1,-1,-1,-1,-1,-1],"loss_changes":[4.6002393E3,5.2861123E3,6.467299E3,5.868972E3,1.3156003E4,1.7027168E4,1.25069E4,0E0,0E0,0E0,0E0,0E0,0E0,0E0,0E0],"parents":[2147483647,0,0,1,1,2,2,3,3,4,4,5,5,6,6],"right_children":[2,4,6,8,10,12,14,-1,-1,-1,-1,-1,-1,-1,-1],"split_conditions":[2.1273941E2,3.917573E1,3.2818928E1,2.1109572E-1,1E0,3.2515656E1,3.4453297E1,1.0609226E0,1.3250919E-2,6.437199E-2,2.2337089E0,-2.2188202E-1,-3.09852E0,1.1792454E0,-2.2839718E-1],"split_indices":[1,0,0,1,5,0,0,0,0,0,0,0,0,0,0],"split_type":[0,0,0,0,0,0,0,0,0,0,0,0,0,0,0],"sum_hessian":[6.989E3,5.65E3,1.339E3,5.507E3,1.43E2,1.063E3,2.76E2,5.3E1,5.454E3,1.06E2,3.7E1,1.043E3,2E1,9.6E1,1.8E2],"tree_param":{"num_deleted":"0","num_feature":"6","num_nodes":"15","size_leaf_vector":"1"}},{"base_weights":[-2.8433716E-3,7.177388E-2,-8.622332E0,-7.5030417E0,1.6132115E-1,-4.116851E0,-2.3131994E1,-1.249078E0,1.8712042E-1,5.4277784E-1,5.385041E-3,-1.124029E0,1.7596537E0,-3.403706E0,1.2639931E0],"categories":[],"categories_nodes":[],"categories_segments":[],"categories_sizes":[],"default_left":[0,0,0,0,0,0,0,0,0,0,0,0,0,0,0],"id":62,"left_children":[1,3,5,7,9,11,13,-1,-1,-1,-1,-1,-1,-1,-1],"loss_changes":[4.496325E3,4.7025356E3,3.8271494E3,3.8106323E3,3.8773054E3,7.4674683E3,5.8915576E3,0E0,0E0,0E0,0E0,0E0,0E0,0E0,0E0],"parents":[2147483647,0,0,1,1,2,2,3,3,4,4,5,5,6,6],"right_children":[2,4,6,8,10,12,14,-1,-1,-1,-1,-1,-1,-1,-1],"split_conditions":[1E0,6.626638E0,3.2202335E1,1E0,9.316777E0,3.0029402E1,2.4132523E2,-1.249078E0,1.8712042E-1,5.4277784E-1,5.385041E-3,-1.124029E0,1.7596537E0,-3.403706E0,1.2639931E0],"split_indices":[2,0,0,5,0,0,1,0,0,0,0,0,0,0,0],"split_type":[0,0,0,0,0,0,0,0,0,0,0,0,0,0,0],"sum_hessian":[6.989E3,6.93E3,5.9E1,8E1,6.85E3,4.6E1,1.3E1,5.2E1,2.8E1,1.36E2,6.714E3,3.5E1,1.1E1,1E1,3E0],"tree_param":{"num_deleted":"0","num_feature":"6","num_nodes":"15","size_leaf_vector":"1"}},{"base_weights":[-2.8344784E-3,-3.180493E0,1.8185203E-1,9.2845E-1,-8.639809E0,8.693524E0,3.7736032E-2,-4.212142E-1,1.6058258E0,-2.4522865E0,-4.4832656E-1,4.4931273E0,2.4988137E-1,-6.3343465E-1,2.0372212E-2],"categories":[],"categories_nodes":[],"categories_segments":[],"categories_sizes":[],"default_left":[0,0,0,0,0,0,0,0,0,0,0,0,0,0,0],"id":63,"left_children":[1,3,5,7,9,11,13,-1,-1,-1,-1,-1,-1,-1,-1],"loss_changes":[4.102804E3,8.621915E3,8.104267E3,1.7178395E4,1.0783129E4,2.4580785E4,6.874075E3,0E0,0E0,0E0,0E0,0E0,0E0,0E0,0E0],"parents":[2147483647,0,0,1,1,2,2,3,3,4,4,5,5,6,6],"right_children":[2,4,6,8,10,12,14,-1,-1,-1,-1,-1,-1,-1,-1],"split_conditions":[1.1097147E1,9.316777E0,1.2187607E1,8.218462E0,4.448927E0,3.4205086E0,1.3358125E1,-4.212142E-1,1.6058258E0,-2.4522865E0,-4.4832656E-1,4.4931273E0,2.4988137E-1,-6.3343465E-1,2.0372212E-2],"split_indices":[0,0,0,0,1,1,0,0,0,0,0,0,0,0,0],"split_type":[0,0,0,0,0,0,0,0,0,0,0,0,0,0,0],"sum_hessian":[6.989E3,3.83E2,6.606E3,2.19E2,1.64E2,1.09E2,6.497E3,1.64E2,5.5E1,3.3E1,1.31E2,1.5E1,9.4E1,1.64E2,6.333E3],"tree_param":{"num_deleted":"0","num_feature":"6","num_nodes":"15","size_leaf_vector":"1"}},{"base_weights":[-2.2184947E-3,4.4246287E0,-1.2789947E-1,-1.3758165E-1,1.5588206E1,-1.7717983E1,-5.514061E-2,-1.133043E0,4.7102246E-1,2.054551E0,-9.2699337E-1,-3.6807697E0,-3.200655E-1,-2.9904062E-2,2.534143E-1],"categories":[],"categories_nodes":[],"categories_segments":[],"categories_sizes":[],"default_left":[0,0,0,0,0,0,0,0,0,0,0,0,0,0,0],"id":64,"left_children":[1,3,5,7,9,11,13,-1,-1,-1,-1,-1,-1,-1,-1],"loss_changes":[3.8895955E3,9.831748E3,8.699338E3,7.5413535E3,7.091297E3,7.641876E3,4.2768223E3,0E0,0E0,0E0,0E0,0E0,0E0,0E0,0E0],"parents":[2147483647,0,0,1,1,2,2,3,3,4,4,5,5,6,6],"right_children":[2,4,6,8,10,12,14,-1,-1,-1,-1,-1,-1,-1,-1],"split_conditions":[6.539026E-1,1E1,7.4941206E-1,2.5402927E1,3.477445E1,5E0,3.6137177E1,-1.133043E0,4.7102246E-1,2.054551E0,-9.2699337E-1,-3.6807697E0,-3.200655E-1,-2.9904062E-2,2.534143E-1],"split_indices":[1,4,1,0,0,4,0,0,0,0,0,0,0,0,0],"split_type":[0,0,0,0,0,0,0,0,0,0,0,0,0,0,0],"sum_hessian":[6.989E3,1.92E2,6.797E3,1.37E2,5.5E1,2.7E1,6.77E3,4.1E1,9.6E1,4.6E1,9E0,1.1E1,1.6E1,6.188E3,5.82E2],"tree_param":{"num_deleted":"0","num_feature":"6","num_nodes":"15","size_leaf_vector":"1"}},{"base_weights":[-2.4677173E-3,1.2162372E-1,-4.350133E0,1.6826194E-2,1.2967588E1,-3.9221132E-1,-8.919373E0,1.4080715E-2,-1.4790343E0,2.9066867E-1,3.0428834E0,2.974707E-1,-1.5788511E0,-1.7498897E0,-5.350342E-1],"categories":[],"categories_nodes":[],"categories_segments":[],"categories_sizes":[],"default_left":[0,0,0,0,0,0,0,0,0,0,0,0,0,0,0],"id":65,"left_children":[1,3,5,7,9,11,13,-1,-1,-1,-1,-1,-1,-1,-1],"loss_changes":[3.7716902E3,9.150076E3,3.5049324E3,1.2380928E4,9.573726E3,5.4899644E3,2.662228E3,0E0,0E0,0E0,0E0,0E0,0E0,0E0,0E0],"parents":[2147483647,0,0,1,1,2,2,3,3,4,4,5,5,6,6],"right_children":[2,4,6,8,10,12,14,-1,-1,-1,-1,-1,-1,-1,-1],"split_conditions":[2.8804922E2,2.845408E2,7E0,2.8100763E2,9E0,3.3559628E1,9E0,1.4080715E-2,-1.4790343E0,2.9066867E-1,3.0428834E0,2.974707E-1,-1.5788511E0,-1.7498897E0,-5.350342E-1],"split_indices":[1,1,4,1,4,0,4,0,0,0,0,0,0,0,0],"split_type":[0,0,0,0,0,0,0,0,0,0,0,0,0,0,0],"sum_hessian":[6.989E3,6.796E3,1.93E2,6.742E3,5.4E1,1.04E2,8.9E1,6.687E3,5.5E1,3.5E1,1.9E1,8.6E1,1.8E1,2.5E1,6.4E1],"tree_param":{"num_deleted":"0","num_feature":"6","num_nodes":"15","size_leaf_vector":"1"}},{"base_weights":[-2.4692933E-3,8.0152416E-1,-6.471139E-1,-1.2644665E0,2.252252E0,-9.750066E0,-5.1367277E-1,3.512318E-2,-7.2214246E-1,1.8694363E0,1.7316596E-1,-4.098593E0,-2.0686619E-1,1.7304564E0,-6.590882E-2],"categories":[],"categories_nodes":[],"categories_segments":[],"categories_sizes":[],"default_left":[0,0,0,0,0,0,0,0,0,0,0,0,0,0,0],"id":66,"left_children":[1,3,5,7,9,11,13,-1,-1,-1,-1,-1,-1,-1,-1],"loss_changes":[3.623366E3,9.327106E3,4.70806E3,1.2360584E4,1.5614647E4,1.3351592E4,9.922159E3,0E0,0E0,0E0,0E0,0E0,0E0,0E0,0E0],"parents":[2147483647,0,0,1,1,2,2,3,3,4,4,5,5,6,6],"right_children":[2,4,6,8,10,12,14,-1,-1,-1,-1,-1,-1,-1,-1],"split_conditions":[9.722162E0,4.099343E0,9.884792E0,3.187451E0,4.268092E0,3E0,5.0266975E1,3.512318E-2,-7.2214246E-1,1.8694363E0,1.7316596E-1,-4.098593E0,-2.0686619E-1,1.7304564E0,-6.590882E-2],"split_indices":[1,1,1,1,1,4,1,0,0,0,0,0,0,0,0],"split_type":[0,0,0,0,0,0,0,0,0,0,0,0,0,0,0],"sum_hessian":[6.989E3,3.11E3,3.879E3,1.283E3,1.827E3,5.5E1,3.824E3,1.01E3,2.73E2,5.5E1,1.772E3,1E1,4.5E1,3E1,3.794E3],"tree_param":{"num_deleted":"0","num_feature":"6","num_nodes":"15","size_leaf_vector":"1"}},{"base_weights":[-2.394222E-3,6.436132E-2,-7.713732E0,-3.6591277E-2,4.9975023E0,3.4656465E0,-9.019268E0,8.8911194E-1,-1.081135E-2,2.8122082E0,-8.282632E-2,-2.712568E0,-5.647171E-1],"categories":[],"categories_nodes":[],"categories_segments":[],"categories_sizes":[],"default_left":[0,0,0,0,0,0,0,0,0,0,0,0,0],"id":67,"left_children":[1,3,5,7,9,-1,11,-1,-1,-1,-1,-1,-1],"loss_changes":[3.59877E3,3.4519136E3,3.6315269E3,4.3384937E3,1.8749146E4,0E0,3.4491548E3,0E0,0E0,0E0,0E0,0E0,0E0],"parents":[2147483647,0,0,1,1,2,2,3,3,4,4,6,6],"right_children":[2,4,6,8,10,-1,12,-1,-1,-1,-1,-1,-1],"split_conditions":[1E0,3.9641796E1,4.3191414E0,2.1109572E-1,4.013862E1,3.4656465E0,2.4397418E0,8.8911194E-1,-1.081135E-2,2.8122082E0,-8.282632E-2,-2.712568E0,-5.647171E-1],"split_indices":[2,0,0,1,0,0,1,0,0,0,0,0,0],"split_type":[0,0,0,0,0,0,0,0,0,0,0,0,0],"sum_hessian":[6.989E3,6.93E3,5.9E1,6.792E3,1.38E2,1E0,5.8E1,5.3E1,6.739E3,2.7E1,1.11E2,8E0,5E1],"tree_param":{"num_deleted":"0","num_feature":"6","num_nodes":"13","size_leaf_vector":"1"}},{"base_weights":[-1.619381E-3,-2.8388622E0,1.7560075E-1,8.412047E-1,-7.04082E0,1.1288433E1,3.3627734E-2,-3.7710148E-1,1.4415759E0,-1.0992115E0,3.5294056E-1,4.674868E0,5.7904714E-1,-5.58043E-1,1.7986802E-2],"categories":[],"categories_nodes":[],"categories_segments":[],"categories_sizes":[],"default_left":[0,0,0,0,0,0,0,0,0,0,0,0,0,0,0],"id":68,"left_children":[1,3,5,7,9,11,13,-1,-1,-1,-1,-1,-1,-1,-1],"loss_changes":[3.5151863E3,6.3614155E3,1.0381032E4,1.3828301E4,8.05788E3,1.5910905E4,5.335871E3,0E0,0E0,0E0,0E0,0E0,0E0,0E0,0E0],"parents":[2147483647,0,0,1,1,2,2,3,3,4,4,5,5,6,6],"right_children":[2,4,6,8,10,12,14,-1,-1,-1,-1,-1,-1,-1,-1],"split_conditions":[1.1392739E1,9.316777E0,1.2187607E1,8.218462E0,2.0204564E2,3.4205086E0,1.3358125E1,-3.7710148E-1,1.4415759E0,-1.0992115E0,3.5294056E-1,4.674868E0,5.7904714E-1,-5.58043E-1,1.7986802E-2],"split_indices":[0,0,0,0,1,1,0,0,0,0,0,0,0,0,0],"split_type":[0,0,0,0,0,0,0,0,0,0,0,0,0,0,0],"sum_hessian":[6.989E3,4.1E2,6.579E3,2.19E2,1.91E2,8.2E1,6.497E3,1.64E2,5.5E1,1.39E2,5.2E1,1E1,7.2E1,1.64E2,6.333E3],"tree_param":{"num_deleted":"0","num_feature":"6","num_nodes":"15","size_leaf_vector":"1"}},{"base_weights":[-7.427843E-4,2.9495078E-1,-1.5474671E0,1.8309864E-1,8.186478E0,-9.908654E0,-1.1071917E0,3.2384764E-2,-5.581796E-1,-1.343827E-1,2.3908715E0,1.8848429E0,-1.3736472E0,-2.1718986E-1,3.17183E-1],"categories":[],"categories_nodes":[],"categories_segments":[],"categories_sizes":[],"default_left":[0,0,0,0,0,0,0,0,0,0,0,0,0,0,0],"id":69,"left_children":[1,3,5,7,9,11,13,-1,-1,-1,-1,-1,-1,-1,-1],"loss_changes":[3.197378E3,5.178974E3,4.1193643E3,4.698208E3,1.2318822E4,6.4232163E3,4.868039E3,0E0,0E0,0E0,0E0,0E0,0E0,0E0,0E0],"parents":[2147483647,0,0,1,1,2,2,3,3,4,4,5,5,6,6],"right_children":[2,4,6,8,10,12,14,-1,-1,-1,-1,-1,-1,-1,-1],"split_conditions":[2.2795312E2,2.2257706E2,2.320111E2,2.1273941E2,1E0,1.1392739E1,3.2993706E1,3.2384764E-2,-5.581796E-1,-1.343827E-1,2.3908715E0,1.8848429E0,-1.3736472E0,-2.1718986E-1,3.17183E-1],"split_indices":[1,1,1,1,5,0,0,0,0,0,0,0,0,0,0],"split_type":[0,0,0,0,0,0,0,0,0,0,0,0,0,0,0],"sum_hessian":[6.989E3,5.868E3,1.121E3,5.787E3,8.1E1,5.5E1,1.066E3,5.65E3,1.37E2,5.1E1,3E1,6E0,4.9E1,8.54E2,2.12E2],"tree_param":{"num_deleted":"0","num_feature":"6","num_nodes":"15","size_leaf_vector":"1"}},{"base_weights":[-3.451608E-4,5.976225E-2,-6.943747E0,-5.9810743E0,1.3117489E-1,3.3096008E0,-8.183336E0,-1.040146E0,2.3038056E-1,4.191534E-3,4.441018E-1,-3.2576222E0,-5.817014E-1],"categories":[],"categories_nodes":[],"categories_segments":[],"categories_sizes":[],"default_left":[0,0,0,0,0,0,0,0,0,0,0,0,0],"id":70,"left_children":[1,3,5,7,9,-1,11,-1,-1,-1,-1,-1,-1],"loss_changes":[2.917691E3,2.990763E3,3.2488066E3,2.9903748E3,2.6353572E3,0E0,3.2160684E3,0E0,0E0,0E0,0E0,0E0,0E0],"parents":[2147483647,0,0,1,1,2,2,3,3,4,4,6,6],"right_children":[2,4,6,8,10,-1,12,-1,-1,-1,-1,-1,-1],"split_conditions":[1E0,6.626638E0,4.3191414E0,1E0,3.9641796E1,3.3096008E0,1.0624193E1,-1.040146E0,2.3038056E-1,4.191534E-3,4.441018E-1,-3.2576222E0,-5.817014E-1],"split_indices":[2,0,0,5,0,0,0,0,0,0,0,0,0],"split_type":[0,0,0,0,0,0,0,0,0,0,0,0,0],"sum_hessian":[6.989E3,6.93E3,5.9E1,8E1,6.85E3,1E0,5.8E1,5.2E1,2.8E1,6.712E3,1.38E2,4E0,5.4E1],"tree_param":{"num_deleted":"0","num_feature":"6","num_nodes":"13","size_leaf_vector":"1"}},{"base_weights":[-4.439085E-4,1.6385563E-1,-2.4525855E0,3.4956723E-2,1.02097845E1,-2.8658657E0,2.017112E1,1.7225703E-2,-5.212623E-1,1.2077698E0,-2.134521E0,-1.4242384E-1,-1.2930883E0,2.9371576E0,-4.9535012E-1],"categories":[],"categories_nodes":[],"categories_segments":[],"categories_sizes":[],"default_left":[0,0,0,0,0,0,0,0,0,0,0,0,0,0,0],"id":71,"left_children":[1,3,5,7,9,11,13,-1,-1,-1,-1,-1,-1,-1,-1],"loss_changes":[2.8165732E3,8.483889E3,4.162427E3,4.662495E3,5.1499873E3,6.2499043E3,1.9947559E3,0E0,0E0,0E0,0E0,0E0,0E0,0E0,0E0],"parents":[2147483647,0,0,1,1,2,2,3,3,4,4,5,5,6,6],"right_children":[2,4,6,8,10,12,14,-1,-1,-1,-1,-1,-1,-1,-1],"split_conditions":[2.7263275E2,2.6802808E2,3.9641796E1,2.5691022E2,3.624511E1,3.477445E1,4.1441048E1,1.7225703E-2,-5.212623E-1,1.2077698E0,-2.134521E0,-1.4242384E-1,-1.2930883E0,2.9371576E0,-4.9535012E-1],"split_indices":[1,1,0,1,0,0,0,0,0,0,0,0,0,0,0],"split_type":[0,0,0,0,0,0,0,0,0,0,0,0,0,0,0],"sum_hessian":[6.989E3,6.551E3,4.38E2,6.469E3,8.2E1,4.31E2,7E0,6.305E3,1.64E2,7.8E1,4E0,3.78E2,5.3E1,5E0,2E0],"tree_param":{"num_deleted":"0","num_feature":"6","num_nodes":"15","size_leaf_vector":"1"}},{"base_weights":[-4.4743178E-4,-5.416943E-1,7.401002E-1,-3.8080713E-1,-2.6358505E1,6.837304E0,1.3373624E-1,-4.3265292E-1,1.3347656E-2,-5.5929003E0,-1.6169432E0,4.720296E-1,4.2088356E0,-6.377966E-1,1.0865434E-1],"categories":[],"categories_nodes":[],"categories_segments":[],"categories_sizes":[],"default_left":[0,0,0,0,0,0,0,0,0,0,0,0,0,0,0],"id":72,"left_children":[1,3,5,7,9,11,13,-1,-1,-1,-1,-1,-1,-1,-1],"loss_changes":[2.8021262E3,1.6766328E4,1.0912998E4,8.1478965E3,6.6280566E3,1.9726676E4,1.667194E4,0E0,0E0,0E0,0E0,0E0,0E0,0E0,0E0],"parents":[2147483647,0,0,1,1,2,2,3,3,4,4,5,5,6,6],"right_children":[2,4,6,8,10,12,14,-1,-1,-1,-1,-1,-1,-1,-1],"split_conditions":[2.9265043E1,2.9218214E1,2.0318947E0,2.5865595E0,3.4205086E0,1.926356E0,4.5247245E0,-4.3265292E-1,1.3347656E-2,-5.5929003E0,-1.6169432E0,4.720296E-1,4.2088356E0,-6.377966E-1,1.0865434E-1],"split_indices":[0,0,1,1,1,1,1,0,0,0,0,0,0,0,0],"split_type":[0,0,0,0,0,0,0,0,0,0,0,0,0,0,0],"sum_hessian":[6.989E3,4.038E3,2.951E3,4.014E3,2.4E1,2.66E2,2.685E3,4.62E2,3.552E3,5E0,1.9E1,2.52E2,1.4E1,3.42E2,2.343E3],"tree_param":{"num_deleted":"0","num_feature":"6","num_nodes":"15","size_leaf_vector":"1"}},{"base_weights":[-8.951801E-4,7.1664596E-1,-5.762224E-1,-2.5173825E-1,3.2073836E0,-8.88551E0,-4.5441943E-1,1.416378E-2,-1.0481223E0,-2.2349168E-2,9.705133E-1,-3.7054718E0,-1.9562325E-1,1.5551023E0,-5.850425E-2],"categories":[],"categories_nodes":[],"categories_segments":[],"categories_sizes":[],"default_left":[0,0,0,0,0,0,0,0,0,0,0,0,0,0,0],"id":73,"left_children":[1,3,5,7,9,11,13,-1,-1,-1,-1,-1,-1,-1,-1],"loss_changes":[2.8860315E3,7.5045107E3,3.9228945E3,9.019345E3,1.9419342E4,1.0858281E4,8.005946E3,0E0,0E0,0E0,0E0,0E0,0E0,0E0,0E0],"parents":[2147483647,0,0,1,1,2,2,3,3,4,4,5,5,6,6],"right_children":[2,4,6,8,10,12,14,-1,-1,-1,-1,-1,-1,-1,-1],"split_conditions":[9.722162E0,7.1885233E0,9.884792E0,6.9289145E0,3.0404812E1,3E0,5.0266975E1,1.416378E-2,-1.0481223E0,-2.2349168E-2,9.705133E-1,-3.7054718E0,-1.9562325E-1,1.5551023E0,-5.850425E-2],"split_indices":[1,1,1,1,0,4,1,0,0,0,0,0,0,0,0],"split_type":[0,0,0,0,0,0,0,0,0,0,0,0,0,0,0],"sum_hessian":[6.989E3,3.11E3,3.879E3,2.24E3,8.7E2,5.5E1,3.824E3,2.158E3,8.2E1,5.7E2,3E2,1E1,4.5E1,3E1,3.794E3],"tree_param":{"num_deleted":"0","num_feature":"6","num_nodes":"15","size_leaf_vector":"1"}},{"base_weights":[-1.1605084E-3,3.671763E0,-1.0543722E-1,-4.7920182E-1,1.3835359E1,-1.6032883E1,-3.955715E-2,-3.277522E-1,1.8358351E0,1.845115E0,-9.242396E-1,-3.320472E0,-1.0787087E-1,-1.5353797E-1,2.395896E-2],"categories":[],"categories_nodes":[],"categories_segments":[],"categories_sizes":[],"default_left":[0,0,0,0,0,0,0,0,0,0,0,0,0,0,0],"id":74,"left_children":[1,3,5,7,9,11,13,-1,-1,-1,-1,-1,-1,-1,-1],"loss_changes":[2.6775596E3,8.149054E3,7.132515E3,7.334634E3,6.1357705E3,7.1543213E3,2.827626E3,0E0,0E0,0E0,0E0,0E0,0E0,0E0,0E0],"parents":[2147483647,0,0,1,1,2,2,3,3,4,4,5,5,6,6],"right_children":[2,4,6,8,10,12,14,-1,-1,-1,-1,-1,-1,-1,-1],"split_conditions":[6.539026E-1,1E1,7.4941206E-1,5.609121E-1,3.477445E1,2.7002794E1,4.099343E0,-3.277522E-1,1.8358351E0,1.845115E0,-9.242396E-1,-3.320472E0,-1.0787087E-1,-1.5353797E-1,2.395896E-2],"split_indices":[1,4,1,1,0,0,1,0,0,0,0,0,0,0,0],"split_type":[0,0,0,0,0,0,0,0,0,0,0,0,0,0,0],"sum_hessian":[6.989E3,1.92E2,6.797E3,1.37E2,5.5E1,2.7E1,6.77E3,1.2E2,1.7E1,4.6E1,9E0,1.2E1,1.5E1,1.064E3,5.706E3],"tree_param":{"num_deleted":"0","num_feature":"6","num_nodes":"15","size_leaf_vector":"1"}},{"base_weights":[-1.2107511E-3,6.74718E-1,-5.431729E-1,-9.6497476E-1,1.8260806E0,-8.09019E0,-4.3253863E-1,4.4278655E-2,-6.1557835E-1,1.7093714E0,1.3428243E-1,-3.370794E0,-1.7883328E-1,1.402286E0,-5.5050563E-2],"categories":[],"categories_nodes":[],"categories_segments":[],"categories_sizes":[],"default_left":[0,0,0,0,0,0,0,0,0,0,0,0,0,0,0],"id":75,"left_children":[1,3,5,7,9,11,13,-1,-1,-1,-1,-1,-1,-1,-1],"loss_changes":[2.560998E3,5.87496E3,3.236141E3,9.385453E3,1.346436E4,8.980324E3,6.530341E3,0E0,0E0,0E0,0E0,0E0,0E0,0E0,0E0],"parents":[2147483647,0,0,1,1,2,2,3,3,4,4,5,5,6,6],"right_children":[2,4,6,8,10,12,14,-1,-1,-1,-1,-1,-1,-1,-1],"split_conditions":[9.722162E0,4.099343E0,9.884792E0,3.187451E0,4.268092E0,3E0,5.0266975E1,4.4278655E-2,-6.1557835E-1,1.7093714E0,1.3428243E-1,-3.370794E0,-1.7883328E-1,1.402286E0,-5.5050563E-2],"split_indices":[1,1,1,1,1,4,1,0,0,0,0,0,0,0,0],"split_type":[0,0,0,0,0,0,0,0,0,0,0,0,0,0,0],"sum_hessian":[6.989E3,3.11E3,3.879E3,1.283E3,1.827E3,5.5E1,3.824E3,1.01E3,2.73E2,5.5E1,1.772E3,1E1,4.5E1,3E1,3.794E3],"tree_param":{"num_deleted":"0","num_feature":"6","num_nodes":"15","size_leaf_vector":"1"}},{"base_weights":[-1.2146672E-3,-2.3805244E0,1.4740197E-1,1.0673736E0,-6.3188424E0,1.0430637E1,1.6029874E-2,-2.998003E-1,1.3026656E0,-4.6242028E-1,-3.135309E0,4.2919154E0,5.392222E-1,-4.8021075E-1,1.4153929E-2],"categories":[],"categories_nodes":[],"categories_segments":[],"categories_sizes":[],"default_left":[0,0,0,0,0,0,0,0,0,0,0,0,0,0,0],"id":76,"left_children":[1,3,5,7,9,11,13,-1,-1,-1,-1,-1,-1,-1,-1],"loss_changes":[2.47205E3,5.5876797E3,8.888954E3,1.0735231E4,8.000432E3,1.3354895E4,3.9301604E3,0E0,0E0,0E0,0E0,0E0,0E0,0E0,0E0],"parents":[2147483647,0,0,1,1,2,2,3,3,4,4,5,5,6,6],"right_children":[2,4,6,8,10,12,14,-1,-1,-1,-1,-1,-1,-1,-1],"split_conditions":[1.1392739E1,9.316777E0,1.2187607E1,8.218462E0,2.7394086E2,3.4205086E0,1.3358125E1,-2.998003E-1,1.3026656E0,-4.6242028E-1,-3.135309E0,4.2919154E0,5.392222E-1,-4.8021075E-1,1.4153929E-2],"split_indices":[0,0,0,0,1,1,0,0,0,0,0,0,0,0,0],"split_type":[0,0,0,0,0,0,0,0,0,0,0,0,0,0,0],"sum_hessian":[6.989E3,4.1E2,6.579E3,2.19E2,1.91E2,8.2E1,6.497E3,1.64E2,5.5E1,1.8E2,1.1E1,1E1,7.2E1,1.64E2,6.333E3],"tree_param":{"num_deleted":"0","num_feature":"6","num_nodes":"15","size_leaf_vector":"1"}},{"base_weights":[-8.4524305E-4,5.4339543E-2,-6.3755937E0,1.0694403E-1,-6.291453E0,-2.2741787E0,-1.968923E1,-2.005749E-3,1.0499889E0,-1.1904405E0,1.1798645E0,-8.492309E-1,1.6569725E0,-2.9863307E0,1.3211784E0],"categories":[],"categories_nodes":[],"categories_segments":[],"categories_sizes":[],"default_left":[0,0,0,0,0,0,0,0,0,0,0,0,0,0,0],"id":77,"left_children":[1,3,5,7,9,11,13,-1,-1,-1,-1,-1,-1,-1,-1],"loss_changes":[2.4593525E3,2.3143596E3,3.2315083E3,9.074657E3,5.9281714E3,5.6478857E3,5.080872E3,0E0,0E0,0E0,0E0,0E0,0E0,0E0,0E0],"parents":[2147483647,0,0,1,1,2,2,3,3,4,4,5,5,6,6],"right_children":[2,4,6,8,10,12,14,-1,-1,-1,-1,-1,-1,-1,-1],"split_conditions":[1E0,4.1441048E1,3.2202335E1,3.9641796E1,1E0,3.0029402E1,2.4132523E2,-2.005749E-3,1.0499889E0,-1.1904405E0,1.1798645E0,-8.492309E-1,1.6569725E0,-2.9863307E0,1.3211784E0],"split_indices":[2,0,0,0,5,0,1,0,0,0,0,0,0,0,0],"split_type":[0,0,0,0,0,0,0,0,0,0,0,0,0,0,0],"sum_hessian":[6.989E3,6.93E3,5.9E1,6.874E3,5.6E1,4.6E1,1.3E1,6.792E3,8.2E1,4.3E1,1.3E1,3.5E1,1.1E1,1E1,3E0],"tree_param":{"num_deleted":"0","num_feature":"6","num_nodes":"15","size_leaf_vector":"1"}},{"base_weights":[-7.268139E-4,9.52476E-2,-3.3632903E0,2.3595404E-2,1.7416323E1,-1.6388494E0,-1.2042059E1,1.0416761E-2,-6.4690614E-1,8.1913614E-1,7.0718246E0,-3.6314973E-1,5.110735E0,-2.1131206E0,-3.798767E-1],"categories":[],"categories_nodes":[],"categories_segments":[],"categories_sizes":[],"default_left":[0,0,0,0,0,0,0,0,0,0,0,0,0,0,0],"id":78,"left_children":[1,3,5,7,9,11,13,-1,-1,-1,-1,-1,-1,-1,-1],"loss_changes":[2.2561335E3,8.435298E3,2.8836738E3,3.5422488E3,1.3188549E4,1.7317648E4,2.317311E3,0E0,0E0,0E0,0E0,0E0,0E0,0E0,0E0],"parents":[2147483647,0,0,1,1,2,2,3,3,4,4,5,5,6,6],"right_children":[2,4,6,8,10,12,14,-1,-1,-1,-1,-1,-1,-1,-1],"split_conditions":[2.8804922E2,2.8568015E2,3.3559628E1,2.8100763E2,1.2E1,3.2902046E1,3.4982323E1,1.0416761E-2,-6.4690614E-1,8.1913614E-1,7.0718246E0,-3.6314973E-1,5.110735E0,-2.1131206E0,-3.798767E-1],"split_indices":[1,1,0,1,4,0,0,0,0,0,0,0,0,0,0],"split_type":[0,0,0,0,0,0,0,0,0,0,0,0,0,0,0],"sum_hessian":[6.989E3,6.796E3,1.93E2,6.769E3,2.7E1,1.62E2,3.1E1,6.687E3,8.2E1,2.4E1,3E0,1.57E2,5E0,1.4E1,1.7E1],"tree_param":{"num_deleted":"0","num_feature":"6","num_nodes":"15","size_leaf_vector":"1"}},{"base_weights":[6.996057E-4,-2.124841E0,1.4276981E-1,-1.194509E0,-1.7446144E1,1.4930765E1,1.53043615E-2,-1.6253239E-1,3.437121E0,8.3519554E-1,-3.007772E0,2.973996E0,-1.1167414E0,-3.5515526E-1,1.5562604E-2],"categories":[],"categories_nodes":[],"categories_segments":[],"categories_sizes":[],"default_left":[0,0,0,0,0,0,0,0,0,0,0,0,0,0,0],"id":79,"left_children":[1,3,5,7,9,11,13,-1,-1,-1,-1,-1,-1,-1,-1],"loss_changes":[2.1111157E3,6.222368E3,1.2351905E4,6.3992715E3,8.397974E3,2.1975727E4,3.2528496E3,0E0,0E0,0E0,0E0,0E0,0E0,0E0,0E0],"parents":[2147483647,0,0,1,1,2,2,3,3,4,4,5,5,6,6],"right_children":[2,4,6,8,10,12,14,-1,-1,-1,-1,-1,-1,-1,-1],"split_conditions":[1.170379E1,2.754479E2,1.2187607E1,2.7263275E2,8.218462E0,3E0,1.3984114E1,-1.6253239E-1,3.437121E0,8.3519554E-1,-3.007772E0,2.973996E0,-1.1167414E0,-3.5515526E-1,1.5562604E-2],"split_indices":[0,1,0,1,0,4,0,0,0,0,0,0,0,0,0],"split_type":[0,0,0,0,0,0,0,0,0,0,0,0,0,0,0],"sum_hessian":[6.989E3,4.37E2,6.552E3,4.13E2,2.4E1,5.5E1,6.497E3,4.09E2,4E0,8E0,1.6E1,3.5E1,2E1,2.45E2,6.252E3],"tree_param":{"num_deleted":"0","num_feature":"6","num_nodes":"15","size_leaf_vector":"1"}},{"base_weights":[1.0037598E-3,3.2204947E0,-9.04E-2,-5.634456E-1,1.2487696E1,-1.4553075E1,-3.05794E-2,2.032791E0,-2.714431E-1,1.9391297E0,-1.9767503E-1,-3.2045987E0,-1.3490744E-1,9.8618764E-1,-7.1646743E-3],"categories":[],"categories_nodes":[],"categories_segments":[],"categories_sizes":[],"default_left":[0,0,0,0,0,0,0,0,0,0,0,0,0,0,0],"id":80,"left_children":[1,3,5,7,9,11,13,-1,-1,-1,-1,-1,-1,-1,-1],"loss_changes":[2.0572634E3,6.7748774E3,5.8809526E3,6.256485E3,5.6303086E3,6.424106E3,2.7514722E3,0E0,0E0,0E0,0E0,0E0,0E0,0E0,0E0],"parents":[2147483647,0,0,1,1,2,2,3,3,4,4,5,5,6,6],"right_children":[2,4,6,8,10,12,14,-1,-1,-1,-1,-1,-1,-1,-1],"split_conditions":[6.539026E-1,1E1,7.4941206E-1,1.3984114E1,1.2E1,5E0,8.336346E-1,2.032791E0,-2.714431E-1,1.9391297E0,-1.9767503E-1,-3.2045987E0,-1.3490744E-1,9.8618764E-1,-7.1646743E-3],"split_indices":[1,4,1,0,4,4,1,0,0,0,0,0,0,0,0],"split_type":[0,0,0,0,0,0,0,0,0,0,0,0,0,0,0],"sum_hessian":[6.989E3,1.92E2,6.797E3,1.37E2,5.5E1,2.7E1,6.77E3,1.2E1,1.25E2,3.7E1,1.8E1,1.1E1,1.6E1,2.7E1,6.743E3],"tree_param":{"num_deleted":"0","num_feature":"6","num_nodes":"15","size_leaf_vector":"1"}},{"base_weights":[1.0572507E-3,5.1007602E-2,-5.7690587E0,-5.0926027E0,1.1181353E-1,2.1739151E1,-7.5982475E0,-1.7683803E-1,-1.6629139E0,4.1304055E-1,2.980923E-3,3.2350647E0,7.4184364E-1,-5.5971007E0,-4.8215833E-1],"categories":[],"categories_nodes":[],"categories_segments":[],"categories_sizes":[],"default_left":[0,0,0,0,0,0,0,0,0,0,0,0,0,0,0],"id":81,"left_children":[1,3,5,7,9,11,13,-1,-1,-1,-1,-1,-1,-1,-1],"loss_changes":[2.0149473E3,2.168323E3,3.1842424E3,3.0769446E3,2.2575679E3,3.6786548E2,7.386081E3,0E0,0E0,0E0,0E0,0E0,0E0,0E0,0E0],"parents":[2147483647,0,0,1,1,2,2,3,3,4,4,5,5,6,6],"right_children":[2,4,6,8,10,12,14,-1,-1,-1,-1,-1,-1,-1,-1],"split_conditions":[1E0,6.626638E0,9.316777E0,2.0043271E2,9.316777E0,4.3191414E0,1.0624193E1,-1.7683803E-1,-1.6629139E0,4.1304055E-1,2.980923E-3,3.2350647E0,7.4184364E-1,-5.5971007E0,-4.8215833E-1],"split_indices":[2,0,0,1,0,0,0,0,0,0,0,0,0,0,0],"split_type":[0,0,0,0,0,0,0,0,0,0,0,0,0,0,0],"sum_hessian":[6.989E3,6.93E3,5.9E1,8E1,6.85E3,3E0,5.6E1,6.3E1,1.7E1,1.36E2,6.714E3,1E0,2E0,2E0,5.4E1],"tree_param":{"num_deleted":"0","num_feature":"6","num_nodes":"15","size_leaf_vector":"1"}},{"base_weights":[4.37447E-4,-8.7870187E-1,3.0596706E-1,-1.13142185E1,-2.527903E-1,1.3159107E1,1.6315044E-1,-3.925153E-1,-2.8917139E0,1.337323E-1,-3.1530756E-1,4.5264516E0,6.993642E-1,2.2498958E-1,-5.3953826E-2],"categories":[],"categories_nodes":[],"categories_segments":[],"categories_sizes":[],"default_left":[0,0,0,0,0,0,0,0,0,0,0,0,0,0,0],"id":82,"left_children":[1,3,5,7,9,11,13,-1,-1,-1,-1,-1,-1,-1,-1],"loss_changes":[1.8778046E3,1.1773813E4,9.521164E3,1.3153549E4,7.8534697E3,1.0966288E4,7.5264316E3,0E0,0E0,0E0,0E0,0E0,0E0,0E0,0E0],"parents":[2147483647,0,0,1,1,2,2,3,3,4,4,5,5,6,6],"right_children":[2,4,6,8,10,12,14,-1,-1,-1,-1,-1,-1,-1,-1],"split_conditions":[2.1663662E1,1.2921828E0,2.2021221E1,9.797268E-1,8E0,2E0,5.4391427E0,-3.925153E-1,-2.8917139E0,1.337323E-1,-3.1530756E-1,4.5264516E0,6.993642E-1,2.2498958E-1,-5.3953826E-2],"split_indices":[0,1,0,1,4,4,1,0,0,0,0,0,0,0,0],"split_type":[0,0,0,0,0,0,0,0,0,0,0,0,0,0,0],"sum_hessian":[6.989E3,1.802E3,5.187E3,1.01E2,1.701E3,5.6E1,5.131E3,7.2E1,2.9E1,1.099E3,6.02E2,8E0,4.8E1,1.292E3,3.839E3],"tree_param":{"num_deleted":"0","num_feature":"6","num_nodes":"15","size_leaf_vector":"1"}},{"base_weights":[6.740303E-4,4.7259293E-2,-5.666394E0,-6.642083E-2,9.431464E0,4.4283238E-1,-2.0067093E1,2.0390938E-3,-7.1465325E-1,-1.4665488E0,1.3710744E0,-7.994482E-1,2.1499214E0,-2.8880675E0,-3.3504552E-1],"categories":[],"categories_nodes":[],"categories_segments":[],"categories_sizes":[],"default_left":[0,0,0,0,0,0,0,0,0,0,0,0,0,0,0],"id":83,"left_children":[1,3,5,7,9,11,13,-1,-1,-1,-1,-1,-1,-1,-1],"loss_changes":[1.8456409E3,7.3978003E3,5.023583E3,4.211639E3,8.759836E3,7.4559062E3,2.4079053E3,0E0,0E0,0E0,0E0,0E0,0E0,0E0,0E0],"parents":[2147483647,0,0,1,1,2,2,3,3,4,4,5,5,6,6],"right_children":[2,4,6,8,10,12,14,-1,-1,-1,-1,-1,-1,-1,-1],"split_conditions":[4.1441048E1,3.9641796E1,1.481892E2,3.872349E1,1.8359089E0,9.621097E0,2.3811034E2,2.0390938E-3,-7.1465325E-1,-1.4665488E0,1.3710744E0,-7.994482E-1,2.1499214E0,-2.8880675E0,-3.3504552E-1],"split_indices":[0,0,1,0,1,1,1,0,0,0,0,0,0,0,0],"split_type":[0,0,0,0,0,0,0,0,0,0,0,0,0,0,0],"sum_hessian":[6.989E3,6.933E3,5.6E1,6.851E3,8.2E1,4E1,1.6E1,6.769E3,8.2E1,1.2E1,7E1,2.9E1,1.1E1,1E1,6E0],"tree_param":{"num_deleted":"0","num_feature":"6","num_nodes":"15","size_leaf_vector":"1"}},{"base_weights":[2.3378254E-4,5.63975E0,-4.530524E-2,1.27688465E1,-2.4685541E1,-9.781962E0,3.3953205E-2,2.5213075E-1,6.1129494E0,-4.886441E0,-9.510414E-1,-1.5082262E0,6.289249E0,9.459182E-1,-8.112887E-3],"categories":[],"categories_nodes":[],"categories_segments":[],"categories_sizes":[],"default_left":[0,0,0,0,0,0,0,0,0,0,0,0,0,0,0],"id":84,"left_children":[1,3,5,7,9,11,13,-1,-1,-1,-1,-1,-1,-1,-1],"loss_changes":[1.7954137E3,1.2421955E4,5.352157E3,2.2642443E4,3.571371E3,2.251955E4,7.463329E3,0E0,0E0,0E0,0E0,0E0,0E0,0E0,0E0],"parents":[2147483647,0,0,1,1,2,2,3,3,4,4,5,5,6,6],"right_children":[2,4,6,8,10,12,14,-1,-1,-1,-1,-1,-1,-1,-1],"split_conditions":[2.1109572E-1,3.477445E1,3.5178152E-1,3.2118042E1,3.4982323E1,3.7949924E1,6.539026E-1,2.5213075E-1,6.1129494E0,-4.886441E0,-9.510414E-1,-1.5082262E0,6.289249E0,9.459182E-1,-8.112887E-3],"split_indices":[1,0,1,0,0,0,1,0,0,0,0,0,0,0,0],"split_type":[0,0,0,0,0,0,0,0,0,0,0,0,0,0,0],"sum_hessian":[6.989E3,5.5E1,6.934E3,4.5E1,1E1,5.5E1,6.879E3,3.8E1,7E0,3E0,7E0,5.2E1,3E0,8.2E1,6.797E3],"tree_param":{"num_deleted":"0","num_feature":"6","num_nodes":"15","size_leaf_vector":"1"}},{"base_weights":[1.1086722E-3,-7.213927E-1,3.560403E-1,-9.182181E0,-2.60269E-1,-5.9247665E0,7.022243E-1,-3.0939123E-1,-4.3172255E0,1.7723624E0,-6.12444E-2,1.655679E-1,-1.321524E0,3.2594068E0,5.5068024E-2],"categories":[],"categories_nodes":[],"categories_segments":[],"categories_sizes":[],"default_left":[0,0,0,0,0,0,0,0,0,0,0,0,0,0,0],"id":85,"left_children":[1,3,5,7,9,11,13,-1,-1,-1,-1,-1,-1,-1,-1],"loss_changes":[1.7927627E3,8.982696E3,1.0197348E4,2.4492371E4,1.3849503E4,1.3561813E4,2.1459988E4,0E0,0E0,0E0,0E0,0E0,0E0,0E0,0E0],"parents":[2147483647,0,0,1,1,2,2,3,3,4,4,5,5,6,6],"right_children":[2,4,6,8,10,12,14,-1,-1,-1,-1,-1,-1,-1,-1],"split_conditions":[5E0,1.1292048E0,1.3810581E1,9.797268E-1,1.53959E0,1.0897684E1,1.4200664E1,-3.0939123E-1,-4.3172255E0,1.7723624E0,-6.12444E-2,1.655679E-1,-1.321524E0,3.2594068E0,5.5068024E-2],"split_indices":[4,1,0,1,1,0,0,0,0,0,0,0,0,0,0],"split_type":[0,0,0,0,0,0,0,0,0,0,0,0,0,0,0],"sum_hessian":[6.989E3,2.302E3,4.687E3,1.18E2,2.184E3,2.44E2,4.443E3,1.01E2,1.7E1,4.1E1,2.143E3,1.2E2,1.24E2,2E1,4.423E3],"tree_param":{"num_deleted":"0","num_feature":"6","num_nodes":"15","size_leaf_vector":"1"}},{"base_weights":[8.953984E-4,-1.0502568E0,2.3739068E-1,2.4349152E-1,-5.8200717E0,5.8933187E0,-2.3272958E-1,-8.93526E-2,1.2966934E0,3.0118892E-1,-1.7521747E0,-1.0969517E0,7.43071E-1,-1.2115053E0,1.5369517E-2],"categories":[],"categories_nodes":[],"categories_segments":[],"categories_sizes":[],"default_left":[0,0,0,0,0,0,0,0,0,0,0,0,0,0,0],"id":86,"left_children":[1,3,5,7,9,11,13,-1,-1,-1,-1,-1,-1,-1,-1],"loss_changes":[1.7379111E3,7.9249043E3,1.5176093E4,1.4637498E4,2.8370336E4,1.1436568E4,2.419972E4,0E0,0E0,0E0,0E0,0E0,0E0,0E0,0E0],"parents":[2147483647,0,0,1,1,2,2,3,3,4,4,5,5,6,6],"right_children":[2,4,6,8,10,12,14,-1,-1,-1,-1,-1,-1,-1,-1],"split_conditions":[4.099343E0,3.187451E0,5.4391427E0,2.9044144E0,2.9218214E1,1.2770637E1,5.957373E0,-8.93526E-2,1.2966934E0,3.0118892E-1,-1.7521747E0,-1.0969517E0,7.43071E-1,-1.2115053E0,1.5369517E-2],"split_indices":[1,1,1,1,0,0,1,0,0,0,0,0,0,0,0],"split_type":[0,0,0,0,0,0,0,0,0,0,0,0,0,0,0],"sum_hessian":[6.989E3,1.283E3,5.706E3,1.01E3,2.73E2,4.37E2,5.269E3,9.28E2,8.2E1,1.56E2,1.17E2,3.6E1,4.01E2,1.65E2,5.104E3],"tree_param":{"num_deleted":"0","num_feature":"6","num_nodes":"15","size_leaf_vector":"1"}},{"base_weights":[5.423899E-4,-1.4951257E-1,1.5901785E0,3.7427637E-1,-1.4593335E0,-1.4098445E0,8.704255E0,6.2099155E-3,5.6933826E-1,2.5510923E-3,-9.7574013E-1,8.5924447E-1,-4.5950642E-1,2.688111E0,2.3994814E-1],"categories":[],"categories_nodes":[],"categories_segments":[],"categories_sizes":[],"default_left":[0,0,0,0,0,0,0,0,0,0,0,0,0,0,0],"id":87,"left_children":[1,3,5,7,9,11,13,-1,-1,-1,-1,-1,-1,-1,-1],"loss_changes":[1.6675822E3,4.3831597E3,1.2881734E4,7.5781855E3,2.2486695E4,1.3579764E4,2.044907E4,0E0,0E0,0E0,0E0,0E0,